/*
Miguel Rodríguez
26-03-2024
Smart cars (NEAT algotithm)
v3: Segundo mapa con opcion de cargar NN entrenada en v2 (mismo circuito)
Cada coche tiene una red neuronal asociada
Al final de cada generación se aplica selección natural
y evolución:
Los dos coches con mejor fitenss se reproducen y se 
aplica una pequeña mutuación
Los coches colisionan con las paredes del circuito
La red neuronal tiene 5 neuronas de entrada,
una por cada rayo que castea el coche:
-90, -45, 0, 45, y 90 grados. Cada neurona de entrada 
tiene como valor la distancia del coche hasta el punto
de colision de este rayo con las paredes del circuito.
Estas colisiones se ven como puntitos verdes.
La red neuronal contiene 2 capas ocultas de 4 neuronas cada una
Finalmente, existen 5 neuronas en la capa de salida que 
determinan el siguiente movimiento del coche:
- Girar a la derecha
- Girar a la izquierda
- Seguir recto
- Aumentar velocidad
- Decrementar velocidad
Para el calculo del fitness se tiene en cuenta la posicion final
en el circuito, si se ha chocado o no, y si ha sido el primero en
completar el circuito.
La visualizacion de la red neuronal corresponde siempre al
coche que va primero.
*/

let circuitimg
let circuit = []
let checkpoints = []
let Ncars = 50
let gen = 0
let popul
let txt
let fitMeans = []
let mutFactor = 0.05

let newPopul = []

let step

let btnLoadPopul


function preload() {
  circuitimg = loadImage('circuito3.png');
}

function setup() {
  createCanvas(1500, 600);
  background(255)
  prev = createVector(0,0)
  let b = new border()
  b.createCircuit()
  b.createCheckPoints()

  let cars = initCars()
  popul = new population(cars)

  step = createP(popul.steps)

  btnSavePopul = createButton('Cargar NN entrenada en Smart Cars v2')
  btnSavePopul.mousePressed(loadNN)

  noLoop()
}

function loadNN(){
  let loaded = '{"cars":[{"fit":0,"posRace":13,"pos":{"isPInst":true,"x":115.10403311036491,"y":305.3189756698258,"z":0},"speed":{"isPInst":true,"x":2.46362432497115,"y":-0.42491785725060155,"z":0},"speedMult":1,"rays":[{"start":{"isPInst":true,"x":124.95853041024951,"y":303.6193042408234,"z":0},"end":{"isPInst":true,"x":119.9525646032856,"y":243.82849971086654,"z":0},"dist":40.29801556811691},{"start":{"isPInst":true,"x":124.95853041024951,"y":303.6193042408234,"z":0},"end":{"isPInst":true,"x":163.69726137748918,"y":257.8010685365994,"z":0},"dist":57.5252438643545},{"start":{"isPInst":true,"x":124.95853041024951,"y":303.6193042408234,"z":0},"end":{"isPInst":true,"x":184.08551420955712,"y":293.421275666809,"z":0},"dist":-60},{"start":{"isPInst":true,"x":124.95853041024951,"y":303.6193042408234,"z":0},"end":{"isPInst":true,"x":176.8075941987007,"y":333.81325370526275,"z":0},"dist":34.13965721899411},{"start":{"isPInst":true,"x":124.95853041024951,"y":303.6193042408234,"z":0},"end":{"isPInst":true,"x":140.27100859612824,"y":361.6324752609201,"z":0},"dist":17.107293407503608}],"crashed":false,"body":{"start":{"isPInst":true,"x":124.95853041024951,"y":303.6193042408234,"z":0},"end":{"isPInst":true,"x":105.24953581048031,"y":307.01864709882824,"z":0},"dist":null},"brain":{"input":[{"value":0.6716601059148031,"weights":[-0.4708110153253213,-0.5531163688209366,0.16472770523215585,0.5810671336470317],"bias":0},{"value":0.8886415584153454,"weights":[-0.016722148172653828,-0.6558901781620454,0.57359510356186,0.32691219880400757],"bias":0},{"value":-1,"weights":[0.8284660533504691,0.10150109662226559,0.5884936106394427,-0.17639232393698556],"bias":0},{"value":0.6860969159979101,"weights":[-0.7017647017430781,0.8682587377132434,0.9961065684207031,-0.3610708527339921],"bias":0},{"value":0.2986080841910134,"weights":[0.07048188443630332,0.16834095806947058,-0.9724256657496531,-0.16468246750867754],"bias":0}],"hidden1":[{"value":0.1564458319924991,"weights":[-0.4543019617649482,-0.8764934457938862,0.8078240205334168,0.2788725886847798],"bias":-0.06493112673670187},{"value":0.38512415206371403,"weights":[-0.6672389432147763,0.8487092162764291,0.555065704044067,-0.15921237806815025],"bias":-0.057973666610007205},{"value":0.5924353068402638,"weights":[-0.02447033985271485,-0.7878025341841437,0.8312982948539873,0.2998723833664463],"bias":-0.05087733958374714},{"value":0.651504361849749,"weights":[0.8803820965483542,-0.005863193633313113,0.45995088137876383,-0.07873406048747711],"bias":0.06538378994025515}],"hidden2":[{"value":0.5599274048957945,"weights":[0.9267871138423889,-0.7516918042755791,-0.5451544148431058,0.2354350923122115,0.3007686761967503],"bias":0.009835236952050463},{"value":0.42649181041868284,"weights":[-0.9932403775061096,0.6687271302163929,0.0693308672164874,-0.3559260991654787,-0.787702158301125],"bias":-0.015371790162843804},{"value":0.7626770692766557,"weights":[0.6539808094747479,0.5236433808311034,0.34056689187355804,-0.7118078829234635,-0.33706206903273506],"bias":0.03511253751498905},{"value":0.526880609920322,"weights":[0.0689773891571237,0.553476984660707,-0.29049994353013453,0.28522467439288945,-0.26506062022406507],"bias":-0.0010451163972488298}],"output":[{"value":0.6525900477689511,"weights":[],"bias":0},{"value":0.6353645620919306,"weights":[],"bias":0},{"value":0.4578517420889547,"weights":[],"bias":0},{"value":0.39829527547211674,"weights":[],"bias":0},{"value":0.36256126409658773,"weights":[],"bias":0}],"Ninput":5,"Nhidden":4,"Noutput":5},"fin":false},{"fit":0,"posRace":12,"pos":{"isPInst":true,"x":91.71698946592203,"y":297.28493939971895,"z":0},"speed":{"isPInst":true,"x":-0.9735458557716271,"y":-2.3026524850072114,"z":0},"speedMult":1,"rays":[{"start":{"isPInst":true,"x":87.82280604283551,"y":288.0743294596901,"z":0},"end":{"isPInst":true,"x":30.733038620339954,"y":306.5339734336503,"z":0},"dist":55.191626070634285},{"start":{"isPInst":true,"x":87.82280604283551,"y":288.0743294596901,"z":0},"end":{"isPInst":true,"x":34.40130492974941,"y":260.7587072111573,"z":0},"dist":58.61152819543195},{"start":{"isPInst":true,"x":87.82280604283551,"y":288.0743294596901,"z":0},"end":{"isPInst":true,"x":64.45770550431645,"y":232.810669819517,"z":0},"dist":34.7477154224567},{"start":{"isPInst":true,"x":87.82280604283551,"y":288.0743294596901,"z":0},"end":{"isPInst":true,"x":105.44689629502408,"y":230.7211129606766,"z":0},"dist":32.039745936726305},{"start":{"isPInst":true,"x":87.82280604283551,"y":288.0743294596901,"z":0},"end":{"isPInst":true,"x":140.8397680817144,"y":259.98159487994377,"z":0},"dist":49.80604681018249}],"crashed":false,"body":{"start":{"isPInst":true,"x":87.82280604283551,"y":288.0743294596901,"z":0},"end":{"isPInst":true,"x":95.61117288900854,"y":306.4955493397478,"z":0},"dist":null},"brain":{"input":[{"value":0.928680719873339,"weights":[-0.4708110153253213,-0.5531163688209366,0.16472770523215585,0.5810671336470317],"bias":0},{"value":0.9011141730108024,"weights":[-0.016722148172653828,-0.6558901781620454,0.57359510356186,0.32691219880400757],"bias":0},{"value":0.5980594852449463,"weights":[0.8284660533504691,0.10150109662226559,0.5884936106394427,-0.17639232393698556],"bias":0},{"value":0.5824907483918064,"weights":[-0.7017647017430781,0.8682587377132434,0.9961065684207031,-0.3610708527339921],"bias":0},{"value":-1,"weights":[0.07048188443630332,0.16834095806947058,-0.9724256657496531,-0.16468246750867754],"bias":0}],"hidden1":[{"value":0.37730236859176713,"weights":[-0.4543019617649482,-0.8764934457938862,0.8078240205334168,0.2788725886847798],"bias":-0.06493112673670187},{"value":0.31765734408361596,"weights":[-0.6672389432147763,0.8487092162764291,0.555065704044067,-0.6556628667905318],"bias":-0.057973666610007205},{"value":0.925778386915669,"weights":[-0.02447033985271485,0.09517752159013781,0.8312982948539873,0.2998723833664463],"bias":-0.05087733958374714},{"value":0.67884387317256,"weights":[0.8803820965483542,-0.005863193633313113,0.45995088137876383,-0.07873406048747711],"bias":0.06538378994025515}],"hidden2":[{"value":0.5501954839129428,"weights":[0.9267871138423889,-0.7516918042755791,-0.5451544148431058,0.2354350923122115,0.3007686761967503],"bias":0.009835236952050463},{"value":0.5019142335372013,"weights":[-0.9932403775061096,0.6687271302163929,0.0693308672164874,-0.3559260991654787,-0.8579104562470756],"bias":-0.015371790162843804},{"value":0.8317470663868842,"weights":[0.6539808094747479,0.5236433808311034,0.34056689187355804,-0.7118078829234635,-0.33706206903273506],"bias":0.03511253751498905},{"value":0.5299803140559862,"weights":[0.0689773891571237,0.553476984660707,-0.29049994353013453,0.28522467439288945,-0.26506062022406507],"bias":-0.0010451163972488298}],"output":[{"value":0.6438000302483532,"weights":[],"bias":0},{"value":0.6572215781251994,"weights":[],"bias":0},{"value":0.4660928495393108,"weights":[],"bias":0},{"value":0.37989599250891615,"weights":[],"bias":0},{"value":0.3349361354846208,"weights":[],"bias":0}],"Ninput":5,"Nhidden":4,"Noutput":5},"fin":false},{"fit":0,"posRace":5,"pos":{"isPInst":true,"x":144.67224594160416,"y":334.82243726833343,"z":0},"speed":{"isPInst":true,"x":-2.330097714918066,"y":-0.9058943861916813,"z":0},"speedMult":1,"rays":[{"start":{"isPInst":true,"x":135.3518550819319,"y":331.1988597235667,"z":0},"end":{"isPInst":true,"x":108.81916912416706,"y":385.0135099209491,"z":0},"dist":10.158827595543865},{"start":{"isPInst":true,"x":135.3518550819319,"y":331.1988597235667,"z":0},"end":{"isPInst":true,"x":78.53770883635222,"y":350.4901216414892,"z":0},"dist":12.460208312778885},{"start":{"isPInst":true,"x":135.3518550819319,"y":331.1988597235667,"z":0},"end":{"isPInst":true,"x":79.42950992389828,"y":309.4573944549664,"z":0},"dist":26.782917619474272},{"start":{"isPInst":true,"x":135.3518550819319,"y":331.1988597235667,"z":0},"end":{"isPInst":true,"x":106.4879978185253,"y":278.5977404970931,"z":0},"dist":25.591420408230587},{"start":{"isPInst":true,"x":135.3518550819319,"y":331.1988597235667,"z":0},"end":{"isPInst":true,"x":152.13663398281807,"y":273.5944224183698,"z":0},"dist":19.028467038840695}],"crashed":true,"body":{"start":{"isPInst":true,"x":135.3518550819319,"y":331.1988597235667,"z":0},"end":{"isPInst":true,"x":153.99263680127643,"y":338.44601481310013,"z":0},"dist":null},"brain":{"input":[{"value":1.0002218715706692,"weights":[-0.4708110153253213,-0.5531163688209366,0.16472770523215585,0.5810671336470317],"bias":0},{"value":-1,"weights":[-0.016722148172653828,-0.6558901781620454,0.57359510356186,0.32691219880400757],"bias":0},{"value":0.22022551879211044,"weights":[0.8284660533504691,0.10150109662226559,0.5884936106394427,-0.17639232393698556],"bias":0},{"value":0.17972734284038278,"weights":[-0.7017647017430781,0.8682587377132434,0.9961065684207031,-0.3610708527339921],"bias":0},{"value":0.1684260291427238,"weights":[0.07048188443630332,0.16834095806947058,-0.9724256657496531,-0.16468246750867754],"bias":0}],"hidden1":[{"value":0.38913957592878445,"weights":[-0.4543019617649482,-0.8764934457938862,0.8078240205334168,0.2788725886847798],"bias":-0.06493112673670187},{"value":0.5625292751566126,"weights":[-0.6672389432147763,0.36368147774030257,0.555065704044067,-0.6556628667905318],"bias":-0.057973666610007205},{"value":0.42192864864593305,"weights":[-0.02447033985271485,-0.7878025341841437,0.8312982948539873,0.2998723833664463],"bias":-0.05087733958374714},{"value":0.5469092474781577,"weights":[0.8803820965483542,-0.005863193633313113,0.45995088137876383,-0.07873406048747711],"bias":0.06538378994025515}],"hidden2":[{"value":0.4822253177146711,"weights":[0.9267871138423889,-0.7516918042755791,-0.5451544148431058,0.2354350923122115,0.3007686761967503],"bias":0.009835236952050463},{"value":0.3804893526904624,"weights":[-0.9932403775061096,0.6687271302163929,0.0693308672164874,-0.3559260991654787,-0.8579104562470756],"bias":-0.015371790162843804},{"value":0.7797155484711706,"weights":[0.6539808094747479,0.5236433808311034,0.34056689187355804,-0.7118078829234635,-0.33706206903273506],"bias":0.03511253751498905},{"value":0.4556444198545973,"weights":[0.0689773891571237,0.553476984660707,-0.29049994353013453,0.28522467439288945,-0.26506062022406507],"bias":-0.0010451163972488298}],"output":[{"value":0.648020863518115,"weights":[],"bias":0},{"value":0.6347015781762828,"weights":[],"bias":0},{"value":0.4741912127676577,"weights":[],"bias":0},{"value":0.39008856109386225,"weights":[],"bias":0},{"value":0.3623974816192901,"weights":[],"bias":0}],"Ninput":5,"Nhidden":4,"Noutput":5},"fin":false},{"fit":0,"posRace":13,"pos":{"isPInst":true,"x":116.66146689005636,"y":307.73554338017993,"z":0},"speed":{"isPInst":true,"x":2.46362432497115,"y":-0.42491785725060155,"z":0},"speedMult":1,"rays":[{"start":{"isPInst":true,"x":126.51596418994096,"y":306.0358719511775,"z":0},"end":{"isPInst":true,"x":121.50999838297705,"y":246.24506742122065,"z":0},"dist":42.64298548147358},{"start":{"isPInst":true,"x":126.51596418994096,"y":306.0358719511775,"z":0},"end":{"isPInst":true,"x":165.25469515718063,"y":260.21763624695353,"z":0},"dist":60.6392931102567},{"start":{"isPInst":true,"x":126.51596418994096,"y":306.0358719511775,"z":0},"end":{"isPInst":true,"x":185.64294798924857,"y":295.8378433771631,"z":0},"dist":-60},{"start":{"isPInst":true,"x":126.51596418994096,"y":306.0358719511775,"z":0},"end":{"isPInst":true,"x":178.36502797839216,"y":336.22982141561687,"z":0},"dist":29.323831720760605},{"start":{"isPInst":true,"x":126.51596418994096,"y":306.0358719511775,"z":0},"end":{"isPInst":true,"x":141.8284423758197,"y":364.0490429712742,"z":0},"dist":15.16120287895428}],"crashed":false,"body":{"start":{"isPInst":true,"x":126.51596418994096,"y":306.0358719511775,"z":0},"end":{"isPInst":true,"x":106.80696959017176,"y":309.43521480918236,"z":0},"dist":null},"brain":{"input":[{"value":0.7113004638129927,"weights":[-0.4708110153253213,-0.5531163688209366,0.16472770523215585,0.5810671336470317],"bias":0},{"value":0.9367283388653255,"weights":[-0.16821714105951635,-0.6558901781620454,0.57359510356186,0.32691219880400757],"bias":0},{"value":-1,"weights":[0.8284660533504691,0.10150109662226559,0.5884936106394427,-0.17639232393698556],"bias":0},{"value":0.5869193504121556,"weights":[-0.7017647017430781,0.8682587377132434,0.9961065684207031,-0.3610708527339921],"bias":0},{"value":0.26414827965058696,"weights":[0.07048188443630332,0.16834095806947058,-0.9724256657496531,-0.16468246750867754],"bias":0}],"hidden1":[{"value":0.1444117498249417,"weights":[-0.4543019617649482,-0.8764934457938862,0.8078240205334168,0.2788725886847798],"bias":-0.06493112673670187},{"value":0.35132210998795865,"weights":[-0.6672389432147763,0.8487092162764291,0.555065704044067,-0.6556628667905318],"bias":-0.057973666610007205},{"value":0.584888090382962,"weights":[-0.02447033985271485,-0.7878025341841437,0.8312982948539873,0.5985344786952753],"bias":-0.05087733958374714},{"value":0.6694939791841507,"weights":[0.8803820965483542,-0.005863193633313113,0.45995088137876383,-0.07873406048747711],"bias":0.06538378994025515}],"hidden2":[{"value":0.5707498087448775,"weights":[0.9267871138423889,-0.7516918042755791,-0.5451544148431058,0.2354350923122115,0.3007686761967503],"bias":0.009835236952050463},{"value":0.42348601117928103,"weights":[-0.9932403775061096,0.6687271302163929,0.0693308672164874,-0.3559260991654787,-0.787702158301125],"bias":-0.015371790162843804},{"value":0.7578502536499735,"weights":[0.6539808094747479,0.5236433808311034,0.34056689187355804,-0.7118078829234635,-0.33706206903273506],"bias":0.03511253751498905},{"value":0.5265355971365325,"weights":[0.0689773891571237,0.553476984660707,0.8991485492880464,0.28522467439288945,-0.26506062022406507],"bias":-0.0010451163972488298}],"output":[{"value":0.6548164664269569,"weights":[],"bias":0},{"value":0.6323791983555954,"weights":[],"bias":0},{"value":0.6105789123579036,"weights":[],"bias":0},{"value":0.399963299193214,"weights":[],"bias":0},{"value":0.3642595760552107,"weights":[],"bias":0}],"Ninput":5,"Nhidden":4,"Noutput":5},"fin":false},{"fit":0,"posRace":13,"pos":{"isPInst":true,"x":109.81042878550595,"y":305.58850642354776,"z":0},"speed":{"isPInst":true,"x":2.330097714918065,"y":-0.905894386191683,"z":0},"speedMult":1,"rays":[{"start":{"isPInst":true,"x":119.1308196451782,"y":301.964928878781,"z":0},"end":{"isPInst":true,"x":102.34604074429198,"y":244.36049157358406,"z":0},"dist":40.12344939237287},{"start":{"isPInst":true,"x":119.1308196451782,"y":301.964928878781,"z":0},"end":{"isPInst":true,"x":147.99467690858475,"y":249.36380965230737,"z":0},"dist":49.45265360384565},{"start":{"isPInst":true,"x":119.1308196451782,"y":301.964928878781,"z":0},"end":{"isPInst":true,"x":175.05316480321179,"y":280.2234636101806,"z":0},"dist":-60},{"start":{"isPInst":true,"x":119.1308196451782,"y":301.964928878781,"z":0},"end":{"isPInst":true,"x":175.94496589075789,"y":321.25619079670344,"z":0},"dist":54.75874022145535},{"start":{"isPInst":true,"x":119.1308196451782,"y":301.964928878781,"z":0},"end":{"isPInst":true,"x":145.66350560294308,"y":355.7795790761634,"z":0},"dist":19.46020754009286}],"crashed":false,"body":{"start":{"isPInst":true,"x":119.1308196451782,"y":301.964928878781,"z":0},"end":{"isPInst":true,"x":100.49003792583369,"y":309.2120839683145,"z":0},"dist":null},"brain":{"input":[{"value":0.6910923616917961,"weights":[-0.4708110153253213,-0.5531163688209366,0.16472770523215585,0.5810671336470317],"bias":0},{"value":0.7925616456207167,"weights":[-0.016722148172653828,-0.6558901781620454,0.57359510356186,0.32691219880400757],"bias":0},{"value":-1,"weights":[0.8284660533504691,0.10150109662226559,0.5884936106394427,-0.17639232393698556],"bias":0},{"value":-1,"weights":[-0.7017647017430781,0.8682587377132434,0.9961065684207031,-0.3610708527339921],"bias":0},{"value":0.3372141726843851,"weights":[0.07048188443630332,0.16834095806947058,-0.9724256657496531,-0.16468246750867754],"bias":0}],"hidden1":[{"value":0.3760161908883218,"weights":[-0.4543019617649482,-0.8764934457938862,0.8078240205334168,0.2788725886847798],"bias":-0.06493112673670187},{"value":0.13318869373683562,"weights":[-0.6672389432147763,0.8487092162764291,0.555065704044067,0.8335967892720264],"bias":-0.057973666610007205},{"value":0.19862001482131456,"weights":[-0.02447033985271485,-0.7878025341841437,0.8312982948539873,0.2998723833664463],"bias":-0.05087733958374714},{"value":0.7699418399150988,"weights":[0.8803820965483542,-0.005863193633313113,0.45995088137876383,-0.07873406048747711],"bias":0.06538378994025515}],"hidden2":[{"value":0.6042306425073467,"weights":[0.9267871138423889,-0.7516918042755791,-0.5451544148431058,0.2354350923122115,0.3007686761967503],"bias":0.009835236952050463},{"value":0.40302017064596785,"weights":[-0.9932403775061096,0.6687271302163929,0.0693308672164874,-0.3559260991654787,-0.787702158301125],"bias":-0.015371790162843804},{"value":0.7174897507103838,"weights":[0.6539808094747479,0.5236433808311034,0.34056689187355804,-0.7118078829234635,-0.33706206903273506],"bias":0.03511253751498905},{"value":0.5532426702160398,"weights":[0.0689773891571237,0.553476984660707,-0.29049994353013453,0.28522467439288945,-0.26506062022406507],"bias":-0.0010451163972488298}],"output":[{"value":0.6608496933801543,"weights":[],"bias":0},{"value":0.6218084194591575,"weights":[],"bias":0},{"value":0.4457590465605943,"weights":[],"bias":0},{"value":0.41238739716175926,"weights":[],"bias":0},{"value":0.371868875908469,"weights":[],"bias":0}],"Ninput":5,"Nhidden":4,"Noutput":5},"fin":false},{"fit":0,"posRace":13,"pos":{"isPInst":true,"x":111.19279456878856,"y":301.9448113501504,"z":0},"speed":{"isPInst":true,"x":2.330097714918065,"y":-0.905894386191683,"z":0},"speedMult":1,"rays":[{"start":{"isPInst":true,"x":120.51318542846082,"y":298.32123380538366,"z":0},"end":{"isPInst":true,"x":103.72840652757459,"y":240.71679650018672,"z":0},"dist":36.442550470639574},{"start":{"isPInst":true,"x":120.51318542846082,"y":298.32123380538366,"z":0},"end":{"isPInst":true,"x":149.37704269186736,"y":245.72011457891003,"z":0},"dist":45.33963577052221},{"start":{"isPInst":true,"x":120.51318542846082,"y":298.32123380538366,"z":0},"end":{"isPInst":true,"x":176.4355305864944,"y":276.57976853678326,"z":0},"dist":-60},{"start":{"isPInst":true,"x":120.51318542846082,"y":298.32123380538366,"z":0},"end":{"isPInst":true,"x":177.3273316740405,"y":317.6124957233061,"z":0},"dist":66.89741690771761},{"start":{"isPInst":true,"x":120.51318542846082,"y":298.32123380538366,"z":0},"end":{"isPInst":true,"x":147.04587138622568,"y":352.13588400276603,"z":0},"dist":23.114326048015183}],"crashed":false,"body":{"start":{"isPInst":true,"x":120.51318542846082,"y":298.32123380538366,"z":0},"end":{"isPInst":true,"x":101.8724037091163,"y":305.5683888949172,"z":0},"dist":null},"brain":{"input":[{"value":0.6273844120550452,"weights":[-0.4708110153253213,-0.5531163688209366,0.16472770523215585,0.5810671336470317],"bias":0},{"value":0.7272569594357728,"weights":[-0.016722148172653828,-0.6558901781620454,0.57359510356186,0.32691219880400757],"bias":0},{"value":-1,"weights":[0.8284660533504691,0.10150109662226559,0.5884936106394427,-0.17639232393698556],"bias":0},{"value":-1,"weights":[-0.7017647017430781,0.8682587377132434,0.9961065684207031,-0.23184319891124572],"bias":0},{"value":0.402518821828672,"weights":[0.07048188443630332,0.16834095806947058,-0.9724256657496531,-0.16468246750867754],"bias":0}],"hidden1":[{"value":0.3844262056979498,"weights":[-0.4543019617649482,-0.8764934457938862,0.8078240205334168,0.2788725886847798],"bias":-0.06493112673670187},{"value":0.1438111018633488,"weights":[-0.6672389432147763,0.8487092162764291,0.555065704044067,-0.6556628667905318],"bias":-0.057973666610007205},{"value":0.18147314477551738,"weights":[-0.02447033985271485,-0.7878025341841437,0.8312982948539873,0.2998723833664463],"bias":-0.05087733958374714},{"value":0.7329483506912476,"weights":[0.8803820965483542,-0.005863193633313113,0.45995088137876383,-0.07873406048747711],"bias":0.06538378994025515}],"hidden2":[{"value":0.5938893072869184,"weights":[0.9267871138423889,-0.7516918042755791,-0.5451544148431058,0.2354350923122115,0.3007686761967503],"bias":0.009835236952050463},{"value":0.4067233833033304,"weights":[-0.9932403775061096,0.6687271302163929,0.0693308672164874,-0.3559260991654787,-0.8579104562470756],"bias":-0.015371790162843804},{"value":0.7137085681801093,"weights":[0.6539808094747479,0.5236433808311034,0.34056689187355804,-0.7118078829234635,-0.33706206903273506],"bias":0.03511253751498905},{"value":0.5021449868619887,"weights":[0.0689773891571237,0.553476984660707,-0.29049994353013453,0.28522467439288945,-0.26506062022406507],"bias":-0.0010451163972488298}],"output":[{"value":0.6565197644703428,"weights":[],"bias":0},{"value":0.6170911320619993,"weights":[],"bias":0},{"value":0.45056936992768787,"weights":[],"bias":0},{"value":0.4086037689817984,"weights":[],"bias":0},{"value":0.36726410390387504,"weights":[],"bias":0}],"Ninput":5,"Nhidden":4,"Noutput":5},"fin":false},{"fit":0,"posRace":13,"pos":{"isPInst":true,"x":110.97312278138033,"y":307.26594369961657,"z":0},"speed":{"isPInst":true,"x":2.330097714918065,"y":-0.905894386191683,"z":0},"speedMult":1,"rays":[{"start":{"isPInst":true,"x":120.29351364105258,"y":303.6423661548498,"z":0},"end":{"isPInst":true,"x":103.50873474016636,"y":246.03792884965287,"z":0},"dist":41.813539715521244},{"start":{"isPInst":true,"x":120.29351364105258,"y":303.6423661548498,"z":0},"end":{"isPInst":true,"x":149.15737090445913,"y":251.04124692837618,"z":0},"dist":51.33443200455114},{"start":{"isPInst":true,"x":120.29351364105258,"y":303.6423661548498,"z":0},"end":{"isPInst":true,"x":176.21585879908616,"y":281.9009008862494,"z":0},"dist":-60},{"start":{"isPInst":true,"x":120.29351364105258,"y":303.6423661548498,"z":0},"end":{"isPInst":true,"x":177.10765988663226,"y":322.93362807277225,"z":0},"dist":49.31083583794561},{"start":{"isPInst":true,"x":120.29351364105258,"y":303.6423661548498,"z":0},"end":{"isPInst":true,"x":146.82619959881745,"y":357.4570163522322,"z":0},"dist":17.886084946025154}],"crashed":false,"body":{"start":{"isPInst":true,"x":120.29351364105258,"y":303.6423661548498,"z":0},"end":{"isPInst":true,"x":101.65273192170807,"y":310.88952124438333,"z":0},"dist":null},"brain":{"input":[{"value":0.7203353707949166,"weights":[-0.4708110153253213,-0.5531163688209366,0.16472770523215585,0.5810671336470317],"bias":0},{"value":0.822442065149307,"weights":[-0.016722148172653828,-0.6558901781620454,0.57359510356186,0.32691219880400757],"bias":0},{"value":-1,"weights":[0.8284660533504691,0.10150109662226559,0.5884936106394427,-0.17639232393698556],"bias":0},{"value":-1,"weights":[-0.7017647017430781,0.8682587377132434,0.9961065684207031,-0.3610708527339921],"bias":0},{"value":0.30899695041414305,"weights":[0.07048188443630332,0.16834095806947058,-0.9724256657496531,-0.16468246750867754],"bias":0}],"hidden1":[{"value":0.372209740194136,"weights":[-0.4543019617649482,-0.8764934457938862,0.8078240205334168,0.2788725886847798],"bias":-0.06493112673670187},{"value":0.1285794588960155,"weights":[-0.6672389432147763,0.8487092162764291,0.555065704044067,-0.6556628667905318],"bias":-0.057973666610007205},{"value":0.20659947574510934,"weights":[-0.02447033985271485,-0.7878025341841437,0.8312982948539873,0.5985344786952753],"bias":-0.05087733958374714},{"value":0.7754578413724277,"weights":[0.8803820965483542,-0.005863193633313113,0.2941086228925931,-0.07873406048747711],"bias":0.06538378994025515}],"hidden2":[{"value":0.606491976245623,"weights":[0.9267871138423889,-0.7516918042755791,-0.5451544148431058,0.2354350923122115,0.3007686761967503],"bias":0.009835236952050463},{"value":0.40136258758006965,"weights":[-0.9932403775061096,0.6687271302163929,0.0693308672164874,-0.3559260991654787,-0.8579104562470756],"bias":-0.015371790162843804},{"value":0.6914649867345102,"weights":[0.6539808094747479,0.5236433808311034,0.34056689187355804,-0.7118078829234635,-0.33706206903273506],"bias":0.03511253751498905},{"value":0.5202517060203709,"weights":[0.0689773891571237,0.553476984660707,0.8991485492880464,0.28522467439288945,-0.26506062022406507],"bias":-0.0010451163972488298}],"output":[{"value":0.6573551294510512,"weights":[],"bias":0},{"value":0.613615473808642,"weights":[],"bias":0},{"value":0.598800261738604,"weights":[],"bias":0},{"value":0.41487031461169926,"weights":[],"bias":0},{"value":0.3698444385938312,"weights":[],"bias":0}],"Ninput":5,"Nhidden":4,"Noutput":5},"fin":false},{"fit":0,"posRace":10,"pos":{"isPInst":true,"x":61.6361721196996,"y":319.5479281713259,"z":0},"speed":{"isPInst":true,"x":-2.434619077195488,"y":0.568005236732721,"z":0},"speedMult":1,"rays":[{"start":{"isPInst":true,"x":51.897695810917654,"y":321.8199491182568,"z":0},"end":{"isPInst":true,"x":60.38536232309907,"y":381.21657795506866,"z":0},"dist":-60},{"start":{"isPInst":true,"x":51.897695810917654,"y":321.8199491182568,"z":0},"end":{"isPInst":true,"x":15.899623328000985,"y":369.82139469560036,"z":0},"dist":33.120990607080685},{"start":{"isPInst":true,"x":51.897695810917654,"y":321.8199491182568,"z":0},"end":{"isPInst":true,"x":-6.533162041774041,"y":335.4520747998421,"z":0},"dist":25.297768704826264},{"start":{"isPInst":true,"x":51.897695810917654,"y":321.8199491182568,"z":0},"end":{"isPInst":true,"x":-1.625499635624415,"y":294.70413179346906,"z":0},"dist":25.19466294710851},{"start":{"isPInst":true,"x":51.897695810917654,"y":321.8199491182568,"z":0},"end":{"isPInst":true,"x":33.2248596676679,"y":264.79955635946084,"z":0},"dist":49.74880596291363}],"crashed":false,"body":{"start":{"isPInst":true,"x":51.897695810917654,"y":321.8199491182568,"z":0},"end":{"isPInst":true,"x":71.37464842848155,"y":317.27590722439504,"z":0},"dist":null},"brain":{"input":[{"value":-1,"weights":[-0.4708110153253213,-0.5531163688209366,0.16472770523215585,0.5810671336470317],"bias":0},{"value":0.5604170068293205,"weights":[-0.016722148172653828,-0.6558901781620454,0.57359510356186,0.32691219880400757],"bias":0},{"value":0.454972132242672,"weights":[0.8284660533504691,0.10150109662226559,0.5884936106394427,-0.17639232393698556],"bias":0},{"value":0.4791623111572035,"weights":[-0.7017647017430781,0.8682587377132434,-0.6664454801572153,-0.3610708527339921],"bias":0},{"value":0.9713902103378838,"weights":[0.07048188443630332,0.16834095806947058,-0.9724256657496531,-0.16468246750867754],"bias":0}],"hidden1":[{"value":0.6237847010402805,"weights":[-0.4543019617649482,-0.8764934457938862,0.8078240205334168,0.2788725886847798],"bias":-0.06493112673670187},{"value":0.6799000441078293,"weights":[-0.6672389432147763,0.8487092162764291,0.555065704044067,-0.6556628667905318],"bias":-0.057973666610007205},{"value":0.2910386925051999,"weights":[-0.02447033985271485,-0.7878025341841437,0.8312982948539873,0.5985344786952753],"bias":-0.05087733958374714},{"value":0.3217562946865021,"weights":[0.8803820965483542,-0.005863193633313113,0.45995088137876383,-0.07873406048747711],"bias":0.06538378994025515}],"hidden2":[{"value":0.3891086528030696,"weights":[0.9267871138423889,-0.7516918042755791,-0.5451544148431058,0.2354350923122115,0.3007686761967503],"bias":0.009835236952050463},{"value":0.44614841263567506,"weights":[-0.9932403775061096,0.6687271302163929,0.0693308672164874,-0.3559260991654787,-0.787702158301125],"bias":-0.015371790162843804},{"value":0.7869004063135244,"weights":[0.6539808094747479,0.5236433808311034,0.34056689187355804,-0.7118078829234635,-0.33706206903273506],"bias":0.03511253751498905},{"value":0.4690370798964494,"weights":[0.0689773891571237,0.553476984660707,0.8991485492880464,0.28522467439288945,-0.26506062022406507],"bias":-0.0010451163972488298}],"output":[{"value":0.6140714368821454,"weights":[],"bias":0},{"value":0.6631845560287927,"weights":[],"bias":0},{"value":0.6244626982322132,"weights":[],"bias":0},{"value":0.3790630501032915,"weights":[],"bias":0},{"value":0.3488818222900871,"weights":[],"bias":0}],"Ninput":5,"Nhidden":4,"Noutput":5},"fin":false},{"fit":0,"posRace":12,"pos":{"isPInst":true,"x":83.76729364388491,"y":301.20293097516134,"z":0},"speed":{"isPInst":true,"x":0.49667332698765293,"y":-2.450166444603103,"z":0},"speedMult":1,"rays":[{"start":{"isPInst":true,"x":85.75398695183553,"y":291.40226519674894,"z":0},"end":{"isPInst":true,"x":28.212669619691006,"y":274.4023593240259,"z":0},"dist":52.659619732180566},{"start":{"isPInst":true,"x":85.75398695183553,"y":291.40226519674894,"z":0},"end":{"isPInst":true,"x":57.086879990004604,"y":238.69366079064704,"z":0},"dist":37.99537705809713},{"start":{"isPInst":true,"x":85.75398695183553,"y":291.40226519674894,"z":0},"end":{"isPInst":true,"x":97.6741467995392,"y":232.59827052627446,"z":0},"dist":36.564219899227794},{"start":{"isPInst":true,"x":85.75398695183553,"y":291.40226519674894,"z":0},"end":{"isPInst":true,"x":132.6838383385132,"y":254.01792290182087,"z":0},"dist":49.56672495378975},{"start":{"isPInst":true,"x":85.75398695183553,"y":291.40226519674894,"z":0},"end":{"isPInst":true,"x":145.3731250543749,"y":298.1519594054029,"z":0},"dist":-60}],"crashed":false,"body":{"start":{"isPInst":true,"x":85.75398695183553,"y":291.40226519674894,"z":0},"end":{"isPInst":true,"x":81.7806003359343,"y":311.00359675357373,"z":0},"dist":null},"brain":{"input":[{"value":0.8330733544112293,"weights":[-0.4708110153253213,-0.5531163688209366,0.16472770523215585,0.5810671336470317],"bias":0},{"value":0.7108586044730728,"weights":[-0.016722148172653828,-0.6558901781620454,0.57359510356186,0.32691219880400757],"bias":0},{"value":0.6417423949750515,"weights":[0.8284660533504691,0.10150109662226559,0.5884936106394427,-0.17639232393698556],"bias":0},{"value":0.807755764171819,"weights":[-0.7017647017430781,0.8682587377132434,0.9961065684207031,-0.3610708527339921],"bias":0},{"value":-1,"weights":[0.07048188443630332,0.16834095806947058,-0.9724256657496531,-0.16468246750867754],"bias":0}],"hidden1":[{"value":0.36015006059194826,"weights":[-0.1190334563273403,-0.8764934457938862,0.8078240205334168,0.2788725886847798],"bias":-0.06493112673670187},{"value":0.4044715522170443,"weights":[-0.6672389432147763,0.8487092162764291,0.555065704044067,-0.6556628667905318],"bias":-0.057973666610007205},{"value":0.9339367268302737,"weights":[-0.02447033985271485,-0.7878025341841437,0.8312982948539873,0.2998723833664463],"bias":-0.05087733958374714},{"value":0.6322009697236493,"weights":[0.8803820965483542,-0.005863193633313113,0.45995088137876383,-0.07873406048747711],"bias":0.06538378994025515}],"hidden2":[{"value":0.5574478943303379,"weights":[0.9267871138423889,-0.7516918042755791,-0.5451544148431058,0.2354350923122115,0.3007686761967503],"bias":0.009835236952050463},{"value":0.3258036124637688,"weights":[-0.9932403775061096,0.6687271302163929,0.0693308672164874,-0.3559260991654787,-0.787702158301125],"bias":-0.015371790162843804},{"value":0.8344804631502122,"weights":[0.6539808094747479,0.5236433808311034,0.34056689187355804,-0.7118078829234635,-0.33706206903273506],"bias":0.03511253751498905},{"value":0.516114409354731,"weights":[0.0689773891571237,0.553476984660707,0.8991485492880464,0.28522467439288945,-0.26506062022406507],"bias":-0.0010451163972488298}],"output":[{"value":0.684465163050128,"weights":[],"bias":0},{"value":0.6274919793059461,"weights":[],"bias":0},{"value":0.6146623208040991,"weights":[],"bias":0},{"value":0.3937681021300509,"weights":[],"bias":0},{"value":0.3758861120526915,"weights":[],"bias":0}],"Ninput":5,"Nhidden":4,"Noutput":5},"fin":false},{"fit":0,"posRace":10,"pos":{"isPInst":true,"x":63.360461113364344,"y":321.0631121292788,"z":0},"speed":{"isPInst":true,"x":-2.434619077195488,"y":0.568005236732721,"z":0},"speedMult":1,"rays":[{"start":{"isPInst":true,"x":53.6219848045824,"y":323.3351330762097,"z":0},"end":{"isPInst":true,"x":62.10965131676382,"y":382.73176191302156,"z":0},"dist":-60},{"start":{"isPInst":true,"x":53.6219848045824,"y":323.3351330762097,"z":0},"end":{"isPInst":true,"x":17.623912321665728,"y":371.33657865355326,"z":0},"dist":35.94464487518363},{"start":{"isPInst":true,"x":53.6219848045824,"y":323.3351330762097,"z":0},"end":{"isPInst":true,"x":-4.808873048109298,"y":336.967258757795,"z":0},"dist":27.06836293229264},{"start":{"isPInst":true,"x":53.6219848045824,"y":323.3351330762097,"z":0},"end":{"isPInst":true,"x":0.09878935804032807,"y":296.21931575142196,"z":0},"dist":27.068133011161287},{"start":{"isPInst":true,"x":53.6219848045824,"y":323.3351330762097,"z":0},"end":{"isPInst":true,"x":34.94914866133264,"y":266.31474031741374,"z":0},"dist":55.188266708231666}],"crashed":false,"body":{"start":{"isPInst":true,"x":53.6219848045824,"y":323.3351330762097,"z":0},"end":{"isPInst":true,"x":73.09893742214629,"y":318.79109118234794,"z":0},"dist":null},"brain":{"input":[{"value":-1,"weights":[-0.4708110153253213,-0.5531163688209366,0.16472770523215585,0.5810671336470317],"bias":0},{"value":0.6021480045111794,"weights":[-0.016722148172653828,-0.6558901781620454,-0.30850912840326394,0.32691219880400757],"bias":0},{"value":0.4839518334395916,"weights":[0.8284660533504691,0.10150109662226559,0.5884936106394427,-0.17639232393698556],"bias":0},{"value":0.5124669671863381,"weights":[-0.7017647017430781,0.8682587377132434,0.9961065684207031,-0.3610708527339921],"bias":0},{"value":0.99671655812098,"weights":[0.07048188443630332,0.16834095806947058,-0.9724256657496531,-0.16468246750867754],"bias":0}],"hidden1":[{"value":0.6241891710293203,"weights":[-0.4543019617649482,-0.8764934457938862,0.8078240205334168,0.2788725886847798],"bias":-0.06493112673670187},{"value":0.6818015795205326,"weights":[-0.6672389432147763,0.8487092162764291,0.555065704044067,-0.6556628667905318],"bias":-0.057973666610007205},{"value":0.36000747775837727,"weights":[-0.02447033985271485,-0.7878025341841437,0.8312982948539873,0.5985344786952753],"bias":-0.05087733958374714},{"value":0.3200857342156958,"weights":[0.8803820965483542,-0.005863193633313113,0.45995088137876383,-0.07873406048747711],"bias":0.06538378994025515}],"hidden2":[{"value":0.38801317745622693,"weights":[0.9267871138423889,-0.7516918042755791,-0.5451544148431058,0.2354350923122115,0.3007686761967503],"bias":0.009835236952050463},{"value":0.4330765579408043,"weights":[-0.9932403775061096,0.6687271302163929,0.0693308672164874,-0.3559260991654787,-0.787702158301125],"bias":-0.015371790162843804},{"value":0.7964559751210981,"weights":[0.6539808094747479,0.5236433808311034,0.34056689187355804,-0.7118078829234635,-0.33706206903273506],"bias":0.03511253751498905},{"value":0.47907907033881547,"weights":[0.0689773891571237,0.553476984660707,-0.29049994353013453,0.28522467439288945,-0.26506062022406507],"bias":-0.0010451163972488298}],"output":[{"value":0.6185431072860746,"weights":[],"bias":0},{"value":0.6637748212683081,"weights":[],"bias":0},{"value":0.4876456575354762,"weights":[],"bias":0},{"value":0.37917066802209015,"weights":[],"bias":0},{"value":0.3498102851841307,"weights":[],"bias":0}],"Ninput":5,"Nhidden":4,"Noutput":5},"fin":false},{"fit":0,"posRace":12,"pos":{"isPInst":true,"x":105.68805425855132,"y":308.2448368915615,"z":0},"speed":{"isPInst":true,"x":2.103677462019741,"y":-1.3507557646703483,"z":0},"speedMult":1,"rays":[{"start":{"isPInst":true,"x":114.10276410663029,"y":302.84181383288006,"z":0},"end":{"isPInst":true,"x":86.2083282791673,"y":249.7202508864875,"z":0},"dist":44.30644675033039},{"start":{"isPInst":true,"x":114.10276410663029,"y":302.84181383288006,"z":0},"end":{"isPInst":true,"x":131.94103676228048,"y":245.5548517152858,"z":0},"dist":47.10308153692723},{"start":{"isPInst":true,"x":114.10276410663029,"y":302.84181383288006,"z":0},"end":{"isPInst":true,"x":164.59102319510407,"y":270.4236754807917,"z":0},"dist":-60},{"start":{"isPInst":true,"x":114.10276410663029,"y":302.84181383288006,"z":0},"end":{"isPInst":true,"x":173.6169920859333,"y":310.4613064687153,"z":0},"dist":-60},{"start":{"isPInst":true,"x":114.10276410663029,"y":302.84181383288006,"z":0},"end":{"isPInst":true,"x":150.79788337587755,"y":350.31252292612743,"z":0},"dist":20.29169187785542}],"crashed":false,"body":{"start":{"isPInst":true,"x":114.10276410663029,"y":302.84181383288006,"z":0},"end":{"isPInst":true,"x":97.27334441047235,"y":313.6478599502429,"z":0},"dist":null},"brain":{"input":[{"value":0.7919241772645642,"weights":[-0.4708110153253213,-0.5531163688209366,0.16472770523215585,0.5810671336470317],"bias":0},{"value":0.7784892235241434,"weights":[-0.016722148172653828,-0.6558901781620454,0.57359510356186,0.32691219880400757],"bias":0},{"value":-1,"weights":[0.8284660533504691,0.10150109662226559,0.5884936106394427,-0.17639232393698556],"bias":0},{"value":-1,"weights":[-0.7017647017430781,0.8682587377132434,0.9961065684207031,-0.3610708527339921],"bias":0},{"value":0.34895010183376624,"weights":[0.07048188443630332,0.16834095806947058,-0.9724256657496531,-0.16468246750867754],"bias":0}],"hidden1":[{"value":0.36519127962022546,"weights":[-0.4543019617649482,-0.8764934457938862,-0.31984354477982846,0.2788725886847798],"bias":-0.06493112673670187},{"value":0.12812713899742792,"weights":[-0.6672389432147763,0.8487092162764291,0.555065704044067,-0.6556628667905318],"bias":-0.057973666610007205},{"value":0.19816289297854056,"weights":[-0.02447033985271485,-0.7878025341841437,0.8312982948539873,0.5985344786952753],"bias":-0.05087733958374714},{"value":0.779032948441383,"weights":[0.8803820965483542,-0.005863193633313113,0.45995088137876383,-0.07873406048747711],"bias":0.06538378994025515}],"hidden2":[{"value":0.6081242161819203,"weights":[0.9267871138423889,-0.7516918042755791,-0.5451544148431058,0.2354350923122115,0.3007686761967503],"bias":0.009835236952050463},{"value":0.4043439033325385,"weights":[-0.9932403775061096,0.6687271302163929,0.0693308672164874,-0.3559260991654787,-0.787702158301125],"bias":-0.015371790162843804},{"value":0.6253869170676614,"weights":[0.6539808094747479,0.5236433808311034,0.34056689187355804,-0.7118078829234635,-0.33706206903273506],"bias":0.03511253751498905},{"value":0.5185063947247768,"weights":[0.0689773891571237,0.553476984660707,0.8991485492880464,0.28522467439288945,-0.26506062022406507],"bias":-0.0010451163972488298}],"output":[{"value":0.6471984505366819,"weights":[],"bias":0},{"value":0.6053326358631321,"weights":[],"bias":0},{"value":0.5928385381781571,"weights":[],"bias":0},{"value":0.426044690531834,"weights":[],"bias":0},{"value":0.3813486815201287,"weights":[],"bias":0}],"Ninput":5,"Nhidden":4,"Noutput":5},"fin":false},{"fit":0,"posRace":0,"pos":{"isPInst":true,"x":249.66880813639054,"y":377.81880999096836,"z":0},"speed":{"isPInst":true,"x":2.158023416622183,"y":1.2621152614996438,"z":0},"speedMult":1,"rays":[{"start":{"isPInst":true,"x":258.30090180287925,"y":382.86727103696694,"z":0},"end":{"isPInst":true,"x":292.9904217779793,"y":333.9118096062222,"z":0},"dist":29.70054363679233},{"start":{"isPInst":true,"x":258.30090180287925,"y":382.86727103696694,"z":0},"end":{"isPInst":true,"x":317.4468353671748,"y":372.77972709367026,"z":0},"dist":24.13625076222025},{"start":{"isPInst":true,"x":258.30090180287925,"y":382.86727103696694,"z":0},"end":{"isPInst":true,"x":310.09346380181165,"y":413.1580373129584,"z":0},"dist":27.62040682473101},{"start":{"isPInst":true,"x":258.30090180287925,"y":382.86727103696694,"z":0},"end":{"isPInst":true,"x":278.5057768669384,"y":439.3629613473416,"z":0},"dist":51.79743644657599},{"start":{"isPInst":true,"x":258.30090180287925,"y":382.86727103696694,"z":0},"end":{"isPInst":true,"x":232.63942024742138,"y":437.10276093407117,"z":0},"dist":10.085700160257385}],"crashed":true,"body":{"start":{"isPInst":true,"x":258.30090180287925,"y":382.86727103696694,"z":0},"end":{"isPInst":true,"x":241.0367144699018,"y":372.7703489449698,"z":0},"dist":null},"brain":{"input":[{"value":0.17710884342040126,"weights":[-0.4708110153253213,-0.5531163688209366,0.16472770523215585,0.5810671336470317],"bias":0},{"value":0.1858066381230671,"weights":[-0.016722148172653828,-0.6558901781620454,0.57359510356186,0.32691219880400757],"bias":0},{"value":0.1922586048448607,"weights":[0.8284660533504691,0.10150109662226559,0.5884936106394427,-0.17639232393698556],"bias":0},{"value":0.21111173156294555,"weights":[-0.7017647017430781,0.8682587377132434,0.9961065684207031,-0.3610708527339921],"bias":0},{"value":-1,"weights":[0.07048188443630332,0.16834095806947058,-0.9724256657496531,-0.16468246750867754],"bias":0}],"hidden1":[{"value":0.4475002398807784,"weights":[-0.4543019617649482,-0.8764934457938862,0.8078240205334168,0.2788725886847798],"bias":-0.06493112673670187},{"value":0.43946561524134875,"weights":[0.2598020929205913,0.8487092162764291,0.555065704044067,-0.6556628667905318],"bias":-0.057973666610007205},{"value":0.7991087906318035,"weights":[-0.02447033985271485,-0.7878025341841437,0.8312982948539873,0.2998723833664463],"bias":-0.05087733958374714},{"value":0.5704240830143064,"weights":[0.8803820965483542,-0.005863193633313113,0.45995088137876383,-0.07873406048747711],"bias":0.06538378994025515}],"hidden2":[{"value":0.5994912519749206,"weights":[0.9267871138423889,-0.7516918042755791,-0.5451544148431058,0.2354350923122115,0.3007686761967503],"bias":0.009835236952050463},{"value":0.33905490056863175,"weights":[-0.9932403775061096,0.6687271302163929,0.0693308672164874,-0.3559260991654787,-0.8579104562470756],"bias":-0.015371790162843804},{"value":0.8273856659128594,"weights":[0.6539808094747479,0.5236433808311034,0.34056689187355804,-0.7118078829234635,-0.33706206903273506],"bias":0.03511253751498905},{"value":0.5075814194385279,"weights":[0.0689773891571237,0.553476984660707,-0.29049994353013453,-0.45770474262595107,-0.26506062022406507],"bias":-0.0010451163972488298}],"output":[{"value":0.688891860125405,"weights":[],"bias":0},{"value":0.6201752672881905,"weights":[],"bias":0},{"value":0.45785510221553166,"weights":[],"bias":0},{"value":0.3098545727914336,"weights":[],"bias":0},{"value":0.3719195433266913,"weights":[],"bias":0}],"Ninput":5,"Nhidden":4,"Noutput":5},"fin":false},{"fit":0,"posRace":0,"pos":{"isPInst":true,"x":250.66880813639054,"y":377.81880999096836,"z":0},"speed":{"isPInst":true,"x":2.158023416622183,"y":1.2621152614996438,"z":0},"speedMult":1,"rays":[{"start":{"isPInst":true,"x":259.30090180287925,"y":382.86727103696694,"z":0},"end":{"isPInst":true,"x":293.9904217779793,"y":333.9118096062222,"z":0},"dist":28.042312789544305},{"start":{"isPInst":true,"x":259.30090180287925,"y":382.86727103696694,"z":0},"end":{"isPInst":true,"x":318.4468353671748,"y":372.77972709367026,"z":0},"dist":23.157535135707985},{"start":{"isPInst":true,"x":259.30090180287925,"y":382.86727103696694,"z":0},"end":{"isPInst":true,"x":311.09346380181165,"y":413.1580373129584,"z":0},"dist":26.471964159618256},{"start":{"isPInst":true,"x":259.30090180287925,"y":382.86727103696694,"z":0},"end":{"isPInst":true,"x":279.5057768669384,"y":439.3629613473416,"z":0},"dist":48.97013459405948},{"start":{"isPInst":true,"x":259.30090180287925,"y":382.86727103696694,"z":0},"end":{"isPInst":true,"x":233.63942024742138,"y":437.10276093407117,"z":0},"dist":10.702982909672649}],"crashed":true,"body":{"start":{"isPInst":true,"x":259.30090180287925,"y":382.86727103696694,"z":0},"end":{"isPInst":true,"x":242.0367144699018,"y":372.7703489449698,"z":0},"dist":null},"brain":{"input":[{"value":0.1683601909115575,"weights":[-0.4708110153253213,-0.5531163688209366,0.16472770523215585,0.5810671336470317],"bias":0},{"value":0.17197063607125576,"weights":[-0.016722148172653828,-0.6558901781620454,0.57359510356186,0.32691219880400757],"bias":0},{"value":0.17392943533995023,"weights":[0.8284660533504691,0.10150109662226559,0.5884936106394427,-0.17639232393698556],"bias":0},{"value":0.17873129572017307,"weights":[-0.7017647017430781,0.8682587377132434,0.9961065684207031,-0.3610708527339921],"bias":0},{"value":-1,"weights":[0.07048188443630332,0.16834095806947058,-0.9724256657496531,-0.16468246750867754],"bias":0}],"hidden1":[{"value":0.45044144357615973,"weights":[-0.4543019617649482,-0.8764934457938862,0.8078240205334168,0.2788725886847798],"bias":-0.06493112673670187},{"value":0.4355131209229321,"weights":[-0.6672389432147763,0.8487092162764291,0.555065704044067,-0.6556628667905318],"bias":-0.057973666610007205},{"value":0.7905618138649791,"weights":[-0.02447033985271485,-0.7878025341841437,0.8312982948539873,0.5985344786952753],"bias":-0.05087733958374714},{"value":0.5717267279904555,"weights":[0.8803820965483542,-0.005863193633313113,0.45995088137876383,-0.07873406048747711],"bias":0.06538378994025515}],"hidden2":[{"value":0.49965003758102144,"weights":[0.9267871138423889,-0.7516918042755791,-0.5451544148431058,0.2354350923122115,0.3007686761967503],"bias":0.009835236952050463},{"value":0.3392326830536889,"weights":[-0.9932403775061096,0.6687271302163929,0.0693308672164874,-0.3559260991654787,-0.787702158301125],"bias":-0.015371790162843804},{"value":0.8264806311259938,"weights":[0.6539808094747479,-0.15523775051401767,0.34056689187355804,-0.7118078829234635,-0.33706206903273506],"bias":0.03511253751498905},{"value":0.5664016989328564,"weights":[0.0689773891571237,0.553476984660707,-0.29049994353013453,0.28522467439288945,-0.26506062022406507],"bias":-0.0010451163972488298}],"output":[{"value":0.6694505431886951,"weights":[],"bias":0},{"value":0.5091141330414489,"weights":[],"bias":0},{"value":0.46706404955497843,"weights":[],"bias":0},{"value":0.39416207886593296,"weights":[],"bias":0},{"value":0.366876252214787,"weights":[],"bias":0}],"Ninput":5,"Nhidden":4,"Noutput":5},"fin":false},{"fit":0,"posRace":10,"pos":{"isPInst":true,"x":64.77729675557946,"y":320.4965967182266,"z":0},"speed":{"isPInst":true,"x":-2.434619077195488,"y":0.568005236732721,"z":0},"speedMult":1,"rays":[{"start":{"isPInst":true,"x":55.03882044679751,"y":322.7686176651575,"z":0},"end":{"isPInst":true,"x":63.526486958978936,"y":382.16524650196936,"z":0},"dist":-60},{"start":{"isPInst":true,"x":55.03882044679751,"y":322.7686176651575,"z":0},"end":{"isPInst":true,"x":19.04074796388084,"y":370.77006324250107,"z":0},"dist":38.27042765935205},{"start":{"isPInst":true,"x":55.03882044679751,"y":322.7686176651575,"z":0},"end":{"isPInst":true,"x":-3.392037405894186,"y":336.4007433467428,"z":0},"dist":28.523247246112298},{"start":{"isPInst":true,"x":55.03882044679751,"y":322.7686176651575,"z":0},"end":{"isPInst":true,"x":1.5156250002554401,"y":295.65280034036977,"z":0},"dist":28.613471691030934},{"start":{"isPInst":true,"x":55.03882044679751,"y":322.7686176651575,"z":0},"end":{"isPInst":true,"x":36.365984303547755,"y":265.74822490636154,"z":0},"dist":59.67175184756516}],"crashed":false,"body":{"start":{"isPInst":true,"x":55.03882044679751,"y":322.7686176651575,"z":0},"end":{"isPInst":true,"x":74.51577306436141,"y":318.22457577129575,"z":0},"dist":null},"brain":{"input":[{"value":-1,"weights":[-0.4708110153253213,-0.5531163688209366,0.16472770523215585,0.5810671336470317],"bias":0},{"value":0.6365101634686695,"weights":[-0.016722148172653828,-0.6558901781620454,0.57359510356186,0.32691219880400757],"bias":0},{"value":0.5077642417466661,"weights":[0.8284660533504691,0.20925009725859178,0.5884936106394427,-0.17639232393698556],"bias":0},{"value":0.5399085593538199,"weights":[-0.7017647017430781,0.8682587377132434,0.9961065684207031,-0.3610708527339921],"bias":0},{"value":0.9870087431603457,"weights":[0.07048188443630332,0.16834095806947058,-0.9724256657496531,-0.16468246750867754],"bias":0}],"hidden1":[{"value":0.6240041647508008,"weights":[-0.4543019617649482,-0.8764934457938862,0.8078240205334168,0.2788725886847798],"bias":-0.06493112673670187},{"value":0.6939913180190973,"weights":[-0.6672389432147763,0.8487092162764291,0.555065704044067,-0.6556628667905318],"bias":-0.057973666610007205},{"value":0.5065805971149984,"weights":[-0.02447033985271485,-0.7878025341841437,0.8312982948539873,0.2998723833664463],"bias":-0.05087733958374714},{"value":0.319807977184282,"weights":[0.8803820965483542,-0.005863193633313113,0.45995088137876383,-0.07873406048747711],"bias":0.06538378994025515}],"hidden2":[{"value":0.38519579334214876,"weights":[0.9267871138423889,-0.7516918042755791,-0.5451544148431058,0.2354350923122115,0.3007686761967503],"bias":0.009835236952050463},{"value":0.4075093784237568,"weights":[-0.9932403775061096,0.6687271302163929,0.0693308672164874,-0.3559260991654787,-0.787702158301125],"bias":-0.015371790162843804},{"value":0.816471856615269,"weights":[0.6539808094747479,0.5236433808311034,0.34056689187355804,-0.7118078829234635,-0.33706206903273506],"bias":0.03511253751498905},{"value":0.46124736585403825,"weights":[0.0689773891571237,0.553476984660707,-0.29049994353013453,0.28522467439288945,-0.26506062022406507],"bias":-0.0010451163972488298}],"output":[{"value":0.626682856701395,"weights":[],"bias":0},{"value":0.660560713389583,"weights":[],"bias":0},{"value":0.4905842982564051,"weights":[],"bias":0},{"value":0.37660895915914533,"weights":[],"bias":0},{"value":0.3537487615298482,"weights":[],"bias":0}],"Ninput":5,"Nhidden":4,"Noutput":5},"fin":false},{"fit":0,"posRace":0,"pos":{"isPInst":true,"x":250.51078471976837,"y":376.55669472946875,"z":0},"speed":{"isPInst":true,"x":2.2732435670642026,"y":1.0403670913678562,"z":0},"speedMult":1,"rays":[{"start":{"isPInst":true,"x":259.60375898802516,"y":380.71816309494017,"z":0},"end":{"isPInst":true,"x":289.2325848765917,"y":328.5441017572888,"z":0},"dist":31.741278316025955},{"start":{"isPInst":true,"x":259.60375898802516,"y":380.71816309494017,"z":0},"end":{"isPInst":true,"x":317.4471352663223,"y":364.7762742254449,"z":0},"dist":23.224724393160734},{"start":{"isPInst":true,"x":259.60375898802516,"y":380.71816309494017,"z":0},"end":{"isPInst":true,"x":314.16160459756605,"y":405.68697328776875,"z":0},"dist":25.370789230344133},{"start":{"isPInst":true,"x":259.60375898802516,"y":380.71816309494017,"z":0},"end":{"isPInst":true,"x":285.34785162519194,"y":434.914488563453,"z":0},"dist":39.978325104171404},{"start":{"isPInst":true,"x":259.60375898802516,"y":380.71816309494017,"z":0},"end":{"isPInst":true,"x":239.4849922130818,"y":437.2445748283541,"z":0},"dist":11.454823856873086}],"crashed":true,"body":{"start":{"isPInst":true,"x":259.60375898802516,"y":380.71816309494017,"z":0},"end":{"isPInst":true,"x":241.41781045151154,"y":372.3952263639973,"z":0},"dist":null},"brain":{"input":[{"value":0.1681916228962608,"weights":[-0.4708110153253213,-0.5531163688209366,0.16472770523215585,0.5810671336470317],"bias":0},{"value":0.17080041597034415,"weights":[-0.016722148172653828,-0.6558901781620454,0.57359510356186,0.32691219880400757],"bias":0},{"value":0.17194085636466394,"weights":[0.8284660533504691,0.10150109662226559,0.5884936106394427,-0.17639232393698556],"bias":0},{"value":0.1741709159118015,"weights":[-0.7017647017430781,0.8682587377132434,0.9961065684207031,-0.3610708527339921],"bias":0},{"value":-1,"weights":[0.07048188443630332,0.16834095806947058,-0.9724256657496531,-0.16468246750867754],"bias":0}],"hidden1":[{"value":0.45085036403101164,"weights":[-0.4543019617649482,-0.8764934457938862,0.8078240205334168,0.2788725886847798],"bias":-0.06493112673670187},{"value":0.4347018555760488,"weights":[-0.6672389432147763,-0.1255754602081085,0.555065704044067,-0.6556628667905318],"bias":-0.057973666610007205},{"value":0.7894981946259775,"weights":[-0.02447033985271485,-0.7878025341841437,0.8312982948539873,0.2998723833664463],"bias":-0.05087733958374714},{"value":0.5720981040093746,"weights":[0.8803820965483542,-0.005863193633313113,0.45995088137876383,-0.07873406048747711],"bias":0.06538378994025515}],"hidden2":[{"value":0.49982716612832495,"weights":[0.9267871138423889,-0.7516918042755791,-0.5451544148431058,0.2354350923122115,0.3007686761967503],"bias":0.009835236952050463},{"value":0.25153353764463227,"weights":[-0.9932403775061096,0.6687271302163929,0.0693308672164874,-0.3559260991654787,-0.8579104562470756],"bias":-0.015371790162843804},{"value":0.8263610889974667,"weights":[0.6539808094747479,0.5236433808311034,0.34056689187355804,-0.7118078829234635,-0.33706206903273506],"bias":0.03511253751498905},{"value":0.5078423381755007,"weights":[0.0689773891571237,0.553476984660707,0.8991485492880464,0.28522467439288945,-0.26506062022406507],"bias":-0.0010451163972488298}],"output":[{"value":0.6875852185147554,"weights":[],"bias":0},{"value":0.6239360984455314,"weights":[],"bias":0},{"value":0.6184590935714536,"weights":[],"bias":0},{"value":0.39766312187201736,"weights":[],"bias":0},{"value":0.3825816164537644,"weights":[],"bias":0}],"Ninput":5,"Nhidden":4,"Noutput":5},"fin":false},{"fit":0,"posRace":10,"pos":{"isPInst":true,"x":66.72973400769649,"y":318.4676067020532,"z":0},"speed":{"isPInst":true,"x":-2.498934007603763,"y":0.07299880575322523,"z":0},"speedMult":1,"rays":[{"start":{"isPInst":true,"x":56.73399797728144,"y":318.75960192506614,"z":0},"end":{"isPInst":true,"x":53.25218774724073,"y":378.6584917104535,"z":0},"dist":-60},{"start":{"isPInst":true,"x":56.73399797728144,"y":318.75960192506614,"z":0},"end":{"isPInst":true,"x":11.917075200021927,"y":358.6525014533927,"z":0},"dist":34.680815555418654},{"start":{"isPInst":true,"x":56.73399797728144,"y":318.75960192506614,"z":0},"end":{"isPInst":true,"x":-3.2404182052088686,"y":320.51157326314353,"z":0},"dist":29.742416083452763},{"start":{"isPInst":true,"x":56.73399797728144,"y":318.75960192506614,"z":0},"end":{"isPInst":true,"x":9.664784262737733,"y":281.5508782128154,"z":0},"dist":33.43935162487806},{"start":{"isPInst":true,"x":56.73399797728144,"y":318.75960192506614,"z":0},"end":{"isPInst":true,"x":49.7615786308379,"y":259.16610086616424,"z":0},"dist":55.80212718176524}],"crashed":false,"body":{"start":{"isPInst":true,"x":56.73399797728144,"y":318.75960192506614,"z":0},"end":{"isPInst":true,"x":76.72547003811154,"y":318.1756114790403,"z":0},"dist":null},"brain":{"input":[{"value":-1,"weights":[-0.4708110153253213,-0.5531163688209366,0.16472770523215585,0.5810671336470317],"bias":0},{"value":0.5955144112343554,"weights":[-0.016722148172653828,-0.6558901781620454,0.57359510356186,0.32691219880400757],"bias":0},{"value":0.5384934001025561,"weights":[0.8284660533504691,0.10150109662226559,0.5884936106394427,-0.17639232393698556],"bias":0},{"value":0.6526225774832692,"weights":[-0.7017647017430781,0.8682587377132434,0.9961065684207031,-0.3610708527339921],"bias":0},{"value":0.9056890991980635,"weights":[0.07048188443630332,0.16834095806947058,-0.9724256657496531,0.7889895398228646],"bias":0}],"hidden1":[{"value":0.6101379918058212,"weights":[-0.4543019617649482,-0.8764934457938862,0.8078240205334168,0.2788725886847798],"bias":-0.06493112673670187},{"value":0.7064735783416622,"weights":[-0.6672389432147763,0.8487092162764291,0.555065704044067,-0.6556628667905318],"bias":-0.057973666610007205},{"value":0.5528630360685884,"weights":[-0.1606801012684489,-0.7878025341841437,0.8312982948539873,0.2998723833664463],"bias":-0.05087733958374714},{"value":0.5157317343684646,"weights":[0.8803820965483542,-0.005863193633313113,0.45995088137876383,-0.07873406048747711],"bias":0.06538378994025515}],"hidden2":[{"value":0.4076879783968941,"weights":[0.9267871138423889,-0.7516918042755791,-0.5451544148431058,0.2354350923122115,0.3007686761967503],"bias":0.009835236952050463},{"value":0.4039258284890315,"weights":[-0.9932403775061096,0.6687271302163929,0.0693308672164874,-0.3559260991654787,-0.8579104562470756],"bias":-0.015371790162843804},{"value":0.8343728631586219,"weights":[0.6539808094747479,0.5236433808311034,0.34056689187355804,-0.7118078829234635,-0.33706206903273506],"bias":0.03511253751498905},{"value":0.457870094307425,"weights":[0.0689773891571237,0.553476984660707,-0.29049994353013453,0.28522467439288945,-0.26506062022406507],"bias":-0.0010451163972488298}],"output":[{"value":0.6350378714994818,"weights":[],"bias":0},{"value":0.6579101239266233,"weights":[],"bias":0},{"value":0.48922670835226684,"weights":[],"bias":0},{"value":0.3749354561389062,"weights":[],"bias":0},{"value":0.3483020344748295,"weights":[],"bias":0}],"Ninput":5,"Nhidden":4,"Noutput":5},"fin":false},{"fit":0,"posRace":0,"pos":{"isPInst":true,"x":250.23754115270415,"y":375.5163276381009,"z":0},"speed":{"isPInst":true,"x":2.3657502192185347,"y":0.8082239171587592,"z":0},"speedMult":1,"rays":[{"start":{"isPInst":true,"x":259.7005420295783,"y":378.7492233067359,"z":0},"end":{"isPInst":true,"x":283.97263239732047,"y":323.87786803661197,"z":0},"dist":38.02773409783833},{"start":{"isPInst":true,"x":259.7005420295783,"y":378.7492233067359,"z":0},"end":{"isPInst":true,"x":315.66340912658234,"y":357.1122755949383,"z":0},"dist":23.65274907818393},{"start":{"isPInst":true,"x":259.7005420295783,"y":378.7492233067359,"z":0},"end":{"isPInst":true,"x":316.47854729082314,"y":398.1465973185461,"z":0},"dist":24.72434112341766},{"start":{"isPInst":true,"x":259.7005420295783,"y":378.7492233067359,"z":0},"end":{"isPInst":true,"x":290.7266257760877,"y":430.104672164229,"z":0},"dist":34.69126396236244},{"start":{"isPInst":true,"x":259.7005420295783,"y":378.7492233067359,"z":0},"end":{"isPInst":true,"x":245.32551010238456,"y":437.0017636555667,"z":0},"dist":12.7574535120082}],"crashed":true,"body":{"start":{"isPInst":true,"x":259.7005420295783,"y":378.7492233067359,"z":0},"end":{"isPInst":true,"x":240.77454027583002,"y":372.2834319694659,"z":0},"dist":null},"brain":{"input":[{"value":0.16976384890871002,"weights":[-0.4708110153253213,-0.5531163688209366,0.16472770523215585,0.5810671336470317],"bias":0},{"value":0.17230825216107673,"weights":[-0.016722148172653828,-0.6558901781620454,0.57359510356186,0.32691219880400757],"bias":0},{"value":0.17333664845462846,"weights":[0.8284660533504691,0.10150109662226559,0.5884936106394427,-0.17639232393698556],"bias":0},{"value":0.17509858572602013,"weights":[-0.7017647017430781,0.8682587377132434,0.9961065684207031,-0.3610708527339921],"bias":0},{"value":-1,"weights":[0.07048188443630332,0.16834095806947058,-0.9724256657496531,-0.16468246750867754],"bias":0}],"hidden1":[{"value":0.45078597432656586,"weights":[-0.4543019617649482,-0.8764934457938862,0.8078240205334168,0.2788725886847798],"bias":-0.06493112673670187},{"value":0.4344778885177769,"weights":[-0.6672389432147763,0.8487092162764291,0.555065704044067,-0.6556628667905318],"bias":-0.057973666610007205},{"value":0.7899746579669183,"weights":[-0.02447033985271485,-0.7878025341841437,0.8312982948539873,0.5985344786952753],"bias":-0.05087733958374714},{"value":0.5723001361009874,"weights":[0.8803820965483542,-0.005863193633313113,0.45995088137876383,-0.07873406048747711],"bias":0.06538378994025515}],"hidden2":[{"value":0.49991339065451434,"weights":[0.9267871138423889,-0.7516918042755791,-0.5451544148431058,0.2354350923122115,0.3007686761967503],"bias":0.009835236952050463},{"value":0.3390709996029758,"weights":[-0.9932403775061096,0.6687271302163929,0.0693308672164874,-0.3559260991654787,-0.8579104562470756],"bias":-0.015371790162843804},{"value":0.8264059498132835,"weights":[0.6539808094747479,0.5236433808311034,0.34056689187355804,-0.7118078829234635,-0.33706206903273506],"bias":0.03511253751498905},{"value":0.566494594720656,"weights":[0.9492757783806316,0.553476984660707,0.8991485492880464,0.28522467439288945,-0.26506062022406507],"bias":-0.0010451163972488298}],"output":[{"value":0.7693682623016591,"weights":[],"bias":0},{"value":0.6450266467890812,"weights":[],"bias":0},{"value":0.6322281129169666,"weights":[],"bias":0},{"value":0.3942096496510661,"weights":[],"bias":0},{"value":0.3614122612584125,"weights":[],"bias":0}],"Ninput":5,"Nhidden":4,"Noutput":5},"fin":false},{"fit":0,"posRace":10,"pos":{"isPInst":true,"x":68.27773414405114,"y":319.9038964563652,"z":0},"speed":{"isPInst":true,"x":-2.498934007603763,"y":0.07299880575322523,"z":0},"speedMult":1,"rays":[{"start":{"isPInst":true,"x":58.281998113636085,"y":320.1958916793781,"z":0},"end":{"isPInst":true,"x":54.80018788359538,"y":380.0947814647655,"z":0},"dist":-60},{"start":{"isPInst":true,"x":58.281998113636085,"y":320.1958916793781,"z":0},"end":{"isPInst":true,"x":13.465075336376572,"y":360.0887912077047,"z":0},"dist":36.71934877741394},{"start":{"isPInst":true,"x":58.281998113636085,"y":320.1958916793781,"z":0},"end":{"isPInst":true,"x":-1.6924180688542236,"y":321.9478630174555,"z":0},"dist":31.29107656392603},{"start":{"isPInst":true,"x":58.281998113636085,"y":320.1958916793781,"z":0},"end":{"isPInst":true,"x":11.212784399092378,"y":282.9871679671274,"z":0},"dist":35.37784999487007},{"start":{"isPInst":true,"x":58.281998113636085,"y":320.1958916793781,"z":0},"end":{"isPInst":true,"x":51.30957876719255,"y":260.6023906204762,"z":0},"dist":57.21625166485258}],"crashed":false,"body":{"start":{"isPInst":true,"x":58.281998113636085,"y":320.1958916793781,"z":0},"end":{"isPInst":true,"x":78.27347017446618,"y":319.6119012333523,"z":0},"dist":null},"brain":{"input":[{"value":-1,"weights":[-0.4708110153253213,-0.649904632191328,0.16472770523215585,0.5810671336470317],"bias":0},{"value":0.6268885253999089,"weights":[-0.016722148172653828,-0.6558901781620454,0.57359510356186,0.32691219880400757],"bias":0},{"value":0.5643581940304062,"weights":[0.8284660533504691,0.10150109662226559,0.5884936106394427,-0.17639232393698556],"bias":0},{"value":0.6880611374159508,"weights":[-0.7017647017430781,0.8682587377132434,0.9961065684207031,-0.3610708527339921],"bias":0},{"value":0.9290650501358196,"weights":[0.07048188443630332,0.16834095806947058,-0.9724256657496531,-0.16468246750867754],"bias":0}],"hidden1":[{"value":0.6095863532744882,"weights":[-0.4543019617649482,-0.8764934457938862,0.8078240205334168,0.2788725886847798],"bias":-0.06493112673670187},{"value":0.7294548959793086,"weights":[-0.6672389432147763,0.8487092162764291,0.555065704044067,-0.6556628667905318],"bias":-0.057973666610007205},{"value":0.5641524164450513,"weights":[-0.02447033985271485,-0.7878025341841437,0.8312982948539873,0.5985344786952753],"bias":-0.05087733958374714},{"value":0.30752114857667356,"weights":[0.8803820965483542,-0.005863193633313113,0.45995088137876383,-0.07873406048747711],"bias":0.06538378994025515}],"hidden2":[{"value":0.37827165746380303,"weights":[0.9267871138423889,-0.7516918042755791,-0.5451544148431058,0.2354350923122115,0.3007686761967503],"bias":0.009835236952050463},{"value":0.4068943682982488,"weights":[-0.9932403775061096,0.6687271302163929,0.0693308672164874,-0.3559260991654787,-0.787702158301125],"bias":-0.015371790162843804},{"value":0.8238815510589983,"weights":[0.6539808094747479,0.5236433808311034,0.34056689187355804,-0.7118078829234635,-0.33706206903273506],"bias":0.03511253751498905},{"value":0.5010318993958378,"weights":[0.0689773891571237,0.553476984660707,0.8991485492880464,0.28522467439288945,-0.26506062022406507],"bias":-0.0010451163972488298}],"output":[{"value":0.6271000578321234,"weights":[],"bias":0},{"value":0.6674085115842552,"weights":[],"bias":0},{"value":0.6348505186866176,"weights":[],"bias":0},{"value":0.3777040984241875,"weights":[],"bias":0},{"value":0.3504088947730889,"weights":[],"bias":0}],"Ninput":5,"Nhidden":4,"Noutput":5},"fin":false},{"fit":0,"posRace":11,"pos":{"isPInst":true,"x":85.19227016226066,"y":308.5704211500583,"z":0},"speed":{"isPInst":true,"x":-4.0203066241915894e-16,"y":-2.499999999999999,"z":0},"speedMult":1,"rays":[{"start":{"isPInst":true,"x":85.19227016226066,"y":298.5704211500583,"z":0},"end":{"isPInst":true,"x":25.42058827675592,"y":293.3410765851988,"z":0},"dist":50.2453723631575},{"start":{"isPInst":true,"x":85.19227016226066,"y":298.5704211500583,"z":0},"end":{"isPInst":true,"x":46.625013581068295,"y":252.6077545629196,"z":0},"dist":51.705783276542306},{"start":{"isPInst":true,"x":85.19227016226066,"y":298.5704211500583,"z":0},"end":{"isPInst":true,"x":85.19227016226064,"y":238.57042115005828,"z":0},"dist":43.24258257752592},{"start":{"isPInst":true,"x":85.19227016226066,"y":298.5704211500583,"z":0},"end":{"isPInst":true,"x":123.759526743453,"y":252.60775456291958,"z":0},"dist":51.21423486794892},{"start":{"isPInst":true,"x":85.19227016226066,"y":298.5704211500583,"z":0},"end":{"isPInst":true,"x":144.9639520477654,"y":293.3410765851988,"z":0},"dist":-60}],"crashed":false,"body":{"start":{"isPInst":true,"x":85.19227016226066,"y":298.5704211500583,"z":0},"end":{"isPInst":true,"x":85.19227016226066,"y":318.5704211500583,"z":0},"dist":null},"brain":{"input":[{"value":0.8181788534196129,"weights":[-0.4708110153253213,-0.5531163688209366,0.16472770523215585,0.5810671336470317],"bias":0},{"value":0.9942207518190979,"weights":[-0.016722148172653828,-0.6558901781620454,0.57359510356186,0.32691219880400757],"bias":0},{"value":0.7667275348188137,"weights":[0.8284660533504691,0.10150109662226559,0.5884936106394427,-0.17639232393698556],"bias":0},{"value":0.8530993775043479,"weights":[-0.7017647017430781,0.8682587377132434,0.9961065684207031,-0.3610708527339921],"bias":0},{"value":-1,"weights":[0.07048188443630332,0.16834095806947058,-0.9724256657496531,-0.16468246750867754],"bias":0}],"hidden1":[{"value":0.37737302474328743,"weights":[-0.4543019617649482,-0.8764934457938862,0.8078240205334168,0.2788725886847798],"bias":-0.06493112673670187},{"value":0.37462459030099377,"weights":[-0.6672389432147763,0.8487092162764291,0.555065704044067,-0.6556628667905318],"bias":-0.057973666610007205},{"value":0.9491939329419572,"weights":[-0.02447033985271485,-0.7878025341841437,0.8312982948539873,0.2998723833664463],"bias":-0.05087733958374714},{"value":0.6427297447401757,"weights":[0.8803820965483542,-0.005863193633313113,0.45995088137876383,-0.07873406048747711],"bias":0.06538378994025515}],"hidden2":[{"value":0.5327158104541558,"weights":[0.9267871138423889,-0.7516918042755791,-0.5451544148431058,0.2354350923122115,0.3007686761967503],"bias":0.009835236952050463},{"value":0.3143769452576748,"weights":[-0.8216101249808316,0.6687271302163929,0.0693308672164874,-0.3559260991654787,-0.8579104562470756],"bias":-0.015371790162843804},{"value":0.836524435372302,"weights":[0.6539808094747479,0.5236433808311034,0.34056689187355804,-0.7118078829234635,-0.33706206903273506],"bias":0.03511253751498905},{"value":0.5231331645442793,"weights":[0.0689773891571237,0.553476984660707,-0.29049994353013453,0.28522467439288945,-0.26506062022406507],"bias":-0.0010451163972488298}],"output":[{"value":0.6939335888766085,"weights":[],"bias":0},{"value":0.6312020149532209,"weights":[],"bias":0},{"value":0.46612846232521676,"weights":[],"bias":0},{"value":0.39347959397189114,"weights":[],"bias":0},{"value":0.37049223611156223,"weights":[],"bias":0}],"Ninput":5,"Nhidden":4,"Noutput":5},"fin":false},{"fit":0,"posRace":11,"pos":{"isPInst":true,"x":98.17671735269927,"y":312.85891788842554,"z":0},"speed":{"isPInst":true,"x":1.4116061834875884,"y":-2.0633390372741944,"z":0},"speedMult":1,"rays":[{"start":{"isPInst":true,"x":103.82314208664963,"y":304.6055617393288,"z":0},"end":{"isPInst":true,"x":57.44415431282805,"y":266.53996712850324,"z":0},"dist":-60},{"start":{"isPInst":true,"x":103.82314208664963,"y":304.6055617393288,"z":0},"end":{"isPInst":true,"x":97.94468540642524,"y":244.89422490067875,"z":0},"dist":47.464322416852745},{"start":{"isPInst":true,"x":103.82314208664963,"y":304.6055617393288,"z":0},"end":{"isPInst":true,"x":137.70169049035175,"y":255.0854248447481,"z":0},"dist":57.216692882299576},{"start":{"isPInst":true,"x":103.82314208664963,"y":304.6055617393288,"z":0},"end":{"isPInst":true,"x":161.6065462580607,"y":288.44764719680956,"z":0},"dist":-60},{"start":{"isPInst":true,"x":103.82314208664963,"y":304.6055617393288,"z":0},"end":{"isPInst":true,"x":156.1075499591455,"y":334.0392277261285,"z":0},"dist":26.335291910207093}],"crashed":false,"body":{"start":{"isPInst":true,"x":103.82314208664963,"y":304.6055617393288,"z":0},"end":{"isPInst":true,"x":92.53029261874892,"y":321.1122740375223,"z":0},"dist":null},"brain":{"input":[{"value":-1,"weights":[-0.4708110153253213,-0.5531163688209366,0.16472770523215585,0.5810671336470317],"bias":0},{"value":0.8275762316151408,"weights":[-0.016722148172653828,-0.6558901781620454,0.3784296846769881,0.32691219880400757],"bias":0},{"value":0.9368986598052088,"weights":[0.8284660533504691,0.10150109662226559,0.5884936106394427,-0.17639232393698556],"bias":0},{"value":-1,"weights":[-0.7017647017430781,0.8682587377132434,0.9961065684207031,-0.3610708527339921],"bias":0},{"value":0.4606724963726412,"weights":[0.07048188443630332,0.16834095806947058,-0.9724256657496531,-0.16468246750867754],"bias":0}],"hidden1":[{"value":0.870170095599411,"weights":[-0.4543019617649482,-0.8764934457938862,0.8078240205334168,0.2788725886847798],"bias":-0.06493112673670187},{"value":0.3222897465833834,"weights":[-0.6672389432147763,0.8487092162764291,0.555065704044067,-0.6556628667905318],"bias":-0.057973666610007205},{"value":0.3110654176045544,"weights":[-0.02447033985271485,-0.7878025341841437,0.8312982948539873,0.5985344786952753],"bias":-0.05087733958374714},{"value":0.46874228083472996,"weights":[0.8803820965483542,-0.005863193633313113,0.45995088137876383,-0.07873406048747711],"bias":0.06538378994025515}],"hidden2":[{"value":0.4512878558963247,"weights":[0.9267871138423889,-0.7516918042755791,-0.5451544148431058,0.2354350923122115,0.3007686761967503],"bias":0.009835236952050463},{"value":0.3203102583203086,"weights":[-0.9932403775061096,0.6687271302163929,0.0693308672164874,-0.3559260991654787,-0.8579104562470756],"bias":-0.015371790162843804},{"value":0.8007734421080358,"weights":[0.6539808094747479,0.5236433808311034,0.34056689187355804,-0.7118078829234635,-0.33706206903273506],"bias":0.03511253751498905},{"value":0.5447760869343001,"weights":[0.0689773891571237,0.553476984660707,0.8991485492880464,0.28522467439288945,-0.26506062022406507],"bias":-0.0010451163972488298}],"output":[{"value":0.6595681589025584,"weights":[],"bias":0},{"value":0.6446974634345104,"weights":[],"bias":0},{"value":0.6315186493159921,"weights":[],"bias":0},{"value":0.39594951831391356,"weights":[],"bias":0},{"value":0.3650821300954287,"weights":[],"bias":0}],"Ninput":5,"Nhidden":4,"Noutput":5},"fin":false},{"fit":0,"posRace":11,"pos":{"isPInst":true,"x":87.45954511517859,"y":308.7966617648707,"z":0},"speed":{"isPInst":true,"x":-0.4966733269876537,"y":-2.450166444603103,"z":0},"speedMult":1,"rays":[{"start":{"isPInst":true,"x":85.47285180722797,"y":298.9959959864583,"z":0},"end":{"isPInst":true,"x":25.853713704688587,"y":305.7456901951123,"z":0},"dist":50.64352521389047},{"start":{"isPInst":true,"x":85.47285180722797,"y":298.9959959864583,"z":0},"end":{"isPInst":true,"x":38.5430004205503,"y":261.61165369153025,"z":0},"dist":62.48995947767472},{"start":{"isPInst":true,"x":85.47285180722797,"y":298.9959959864583,"z":0},"end":{"isPInst":true,"x":73.55269195952428,"y":240.19200131598382,"z":0},"dist":44.398416029221956},{"start":{"isPInst":true,"x":85.47285180722797,"y":298.9959959864583,"z":0},"end":{"isPInst":true,"x":114.13995876905888,"y":246.28739158035637,"z":0},"dist":46.29106625663633},{"start":{"isPInst":true,"x":85.47285180722797,"y":298.9959959864583,"z":0},"end":{"isPInst":true,"x":143.01416913937248,"y":281.99609011373525,"z":0},"dist":-60}],"crashed":false,"body":{"start":{"isPInst":true,"x":85.47285180722797,"y":298.9959959864583,"z":0},"end":{"isPInst":true,"x":89.4462384231292,"y":318.5973275432831,"z":0},"dist":null},"brain":{"input":[{"value":0.8493789119544277,"weights":[-0.4708110153253213,-0.5531163688209366,0.16472770523215585,0.5810671336470317],"bias":0},{"value":1.0848564942559171,"weights":[-0.016722148172653828,-0.6558901781620454,0.57359510356186,0.32691219880400757],"bias":0},{"value":0.8024568748766149,"weights":[0.8284660533504691,0.10150109662226559,0.5884936106394427,-0.17639232393698556],"bias":0},{"value":0.7906338450573993,"weights":[-0.7017647017430781,0.8682587377132434,0.9961065684207031,-0.3610708527339921],"bias":0},{"value":-1,"weights":[0.07048188443630332,0.16834095806947058,-0.9724256657496531,-0.16468246750867754],"bias":0}],"hidden1":[{"value":0.3909116550488888,"weights":[-0.4543019617649482,-0.8764934457938862,0.8078240205334168,0.2788725886847798],"bias":-0.06493112673670187},{"value":0.3453049248236151,"weights":[-0.6672389432147763,0.8487092162764291,0.555065704044067,-0.6556628667905318],"bias":-0.057973666610007205},{"value":0.949956770090991,"weights":[-0.02447033985271485,-0.7878025341841437,0.8312982948539873,0.2998723833664463],"bias":-0.05087733958374714},{"value":0.6572905556175742,"weights":[0.8803820965483542,-0.005863193633313113,0.45995088137876383,-0.07873406048747711],"bias":0.06538378994025515}],"hidden2":[{"value":0.5392350416449962,"weights":[0.9267871138423889,-0.7516918042755791,-0.5451544148431058,-0.7257779578362498,0.3007686761967503],"bias":0.009835236952050463},{"value":0.30636429655614267,"weights":[-0.9932403775061096,0.6687271302163929,0.0693308672164874,-0.3559260991654787,-0.8579104562470756],"bias":-0.015371790162843804},{"value":0.836796919918378,"weights":[0.6539808094747479,0.5236433808311034,0.34056689187355804,-0.7118078829234635,-0.33706206903273506],"bias":0.03511253751498905},{"value":0.5286387343228418,"weights":[0.0689773891571237,0.553476984660707,-0.29049994353013453,0.28522467439288945,-0.26506062022406507],"bias":-0.0010451163972488298}],"output":[{"value":0.6855024840750389,"weights":[],"bias":0},{"value":0.6295549676747785,"weights":[],"bias":0},{"value":0.4647311550125216,"weights":[],"bias":0},{"value":0.2798379058753936,"weights":[],"bias":0},{"value":0.37219260783279284,"weights":[],"bias":0}],"Ninput":5,"Nhidden":4,"Noutput":5},"fin":false},{"fit":0,"posRace":11,"pos":{"isPInst":true,"x":99.56640580253814,"y":309.3265782023291,"z":0},"speed":{"isPInst":true,"x":1.4116061834875884,"y":-2.0633390372741944,"z":0},"speedMult":1,"rays":[{"start":{"isPInst":true,"x":105.2128305364885,"y":301.0732220532323,"z":0},"end":{"isPInst":true,"x":58.83384276266692,"y":263.0076274424068,"z":0},"dist":58.325845095134326},{"start":{"isPInst":true,"x":105.2128305364885,"y":301.0732220532323,"z":0},"end":{"isPInst":true,"x":99.33437385626411,"y":241.3618852145823,"z":0},"dist":43.93847722780873},{"start":{"isPInst":true,"x":105.2128305364885,"y":301.0732220532323,"z":0},"end":{"isPInst":true,"x":139.09137894019062,"y":251.55308515865164,"z":0},"dist":52.94523510633757},{"start":{"isPInst":true,"x":105.2128305364885,"y":301.0732220532323,"z":0},"end":{"isPInst":true,"x":162.99623470789956,"y":284.9153075107131,"z":0},"dist":-60},{"start":{"isPInst":true,"x":105.2128305364885,"y":301.0732220532323,"z":0},"end":{"isPInst":true,"x":157.49723840898437,"y":330.50688804003204,"z":0},"dist":33.45015884304809}],"crashed":false,"body":{"start":{"isPInst":true,"x":105.2128305364885,"y":301.0732220532323,"z":0},"end":{"isPInst":true,"x":93.91998106858779,"y":317.57993435142583,"z":0},"dist":null},"brain":{"input":[{"value":-1,"weights":[-0.4708110153253213,-0.5531163688209366,0.16472770523215585,0.5810671336470317],"bias":0},{"value":0.767833063368684,"weights":[-0.016722148172653828,-0.6558901781620454,0.6260731773525374,0.32691219880400757],"bias":0},{"value":0.86988351089867,"weights":[0.8284660533504691,0.10150109662226559,0.5884936106394427,-0.17639232393698556],"bias":0},{"value":-1,"weights":[-0.7017647017430781,0.8682587377132434,0.9961065684207031,-0.3610708527339921],"bias":0},{"value":0.6085589748923514,"weights":[0.07048188443630332,0.16834095806947058,-0.9724256657496531,-0.16468246750867754],"bias":0}],"hidden1":[{"value":0.8651063917092036,"weights":[-0.4543019617649482,-0.8764934457938862,0.8078240205334168,0.2788725886847798],"bias":-0.06493112673670187},{"value":0.33492556155791464,"weights":[-0.6672389432147763,0.8487092162764291,0.555065704044067,-0.6556628667905318],"bias":-0.057973666610007205},{"value":0.30770952203000085,"weights":[-0.02447033985271485,-0.7878025341841437,0.8312982948539873,0.5985344786952753],"bias":-0.05087733958374714},{"value":0.46076625553897627,"weights":[0.8803820965483542,-0.005863193633313113,0.45995088137876383,-0.07873406048747711],"bias":0.06538378994025515}],"hidden2":[{"value":0.44805335413315384,"weights":[0.9267871138423889,-0.7516918042755791,-0.5451544148431058,0.2354350923122115,0.3007686761967503],"bias":0.009835236952050463},{"value":0.32420946503702586,"weights":[-0.9932403775061096,0.6687271302163929,0.0693308672164874,-0.3559260991654787,-0.787702158301125],"bias":-0.015371790162843804},{"value":0.8002088523731614,"weights":[0.6539808094747479,0.5236433808311034,0.34056689187355804,-0.7118078829234635,-0.33706206903273506],"bias":0.03511253751498905},{"value":0.5420275618849143,"weights":[0.0689773891571237,0.553476984660707,0.8991485492880464,0.28522467439288945,-0.26506062022406507],"bias":-0.0010451163972488298}],"output":[{"value":0.6578980127551847,"weights":[],"bias":0},{"value":0.6454351506438364,"weights":[],"bias":0},{"value":0.6313720402961421,"weights":[],"bias":0},{"value":0.39534423131073343,"weights":[],"bias":0},{"value":0.36958203723629746,"weights":[],"bias":0}],"Ninput":5,"Nhidden":4,"Noutput":5},"fin":false},{"fit":0,"posRace":11,"pos":{"isPInst":true,"x":98.82952559121604,"y":316.51445246900585,"z":0},"speed":{"isPInst":true,"x":1.4116061834875884,"y":-2.0633390372741944,"z":0},"speedMult":1,"rays":[{"start":{"isPInst":true,"x":104.4759503251664,"y":308.2610963199091,"z":0},"end":{"isPInst":true,"x":58.09696255134482,"y":270.19550170908354,"z":0},"dist":-60},{"start":{"isPInst":true,"x":104.4759503251664,"y":308.2610963199091,"z":0},"end":{"isPInst":true,"x":98.597493644942,"y":248.54975948125906,"z":0},"dist":51.10412297500664},{"start":{"isPInst":true,"x":104.4759503251664,"y":308.2610963199091,"z":0},"end":{"isPInst":true,"x":138.35449872886852,"y":258.7409594253284,"z":0},"dist":61.61996858866177},{"start":{"isPInst":true,"x":104.4759503251664,"y":308.2610963199091,"z":0},"end":{"isPInst":true,"x":162.25935449657746,"y":292.10318177738986,"z":0},"dist":-60},{"start":{"isPInst":true,"x":104.4759503251664,"y":308.2610963199091,"z":0},"end":{"isPInst":true,"x":156.76035819766227,"y":337.6947623067088,"z":0},"dist":19.409044689292628}],"crashed":false,"body":{"start":{"isPInst":true,"x":104.4759503251664,"y":308.2610963199091,"z":0},"end":{"isPInst":true,"x":93.18310085726569,"y":324.7678086181026,"z":0},"dist":null},"brain":{"input":[{"value":-1,"weights":[-0.4708110153253213,-0.5531163688209366,0.16472770523215585,0.5810671336470317],"bias":0},{"value":0.8892403722188199,"weights":[-0.016722148172653828,-0.6558901781620454,0.57359510356186,0.32691219880400757],"bias":0},{"value":1.005981907870782,"weights":[0.8284660533504691,0.10150109662226559,0.5884936106394427,-0.17639232393698556],"bias":0},{"value":-1,"weights":[-0.7017647017430781,0.8682587377132434,0.6076321539733618,-0.3610708527339921],"bias":0},{"value":0.34676776108438145,"weights":[0.07048188443630332,0.16834095806947058,-0.9724256657496531,-0.16468246750867754],"bias":0}],"hidden1":[{"value":0.8755161148779003,"weights":[-0.4543019617649482,-0.8764934457938862,0.8078240205334168,0.2788725886847798],"bias":-0.06493112673670187},{"value":0.3109082491154836,"weights":[-0.6672389432147763,0.8487092162764291,0.555065704044067,-0.6556628667905318],"bias":-0.057973666610007205},{"value":0.48541283541329744,"weights":[-0.02447033985271485,-0.7878025341841437,0.8312982948539873,0.5985344786952753],"bias":-0.05087733958374714},{"value":0.47540411246410136,"weights":[0.8803820965483542,-0.005863193633313113,0.45995088137876383,-0.07873406048747711],"bias":0.06538378994025515}],"hidden2":[{"value":0.4529633732647433,"weights":[0.9267871138423889,-0.7516918042755791,-0.5451544148431058,0.2354350923122115,0.3007686761967503],"bias":0.009835236952050463},{"value":0.28821235192505906,"weights":[-0.9932403775061096,0.6687271302163929,0.0693308672164874,-0.3559260991654787,-0.787702158301125],"bias":-0.015371790162843804},{"value":0.823047909958853,"weights":[0.6539808094747479,0.5236433808311034,0.34056689187355804,-0.7118078829234635,-0.33706206903273506],"bias":0.03511253751498905},{"value":0.5725755532170304,"weights":[0.0689773891571237,0.553476984660707,0.8991485492880464,0.28522467439288945,-0.26506062022406507],"bias":-0.0010451163972488298}],"output":[{"value":0.6706858699170778,"weights":[],"bias":0},{"value":0.6456877736132771,"weights":[],"bias":0},{"value":0.6383432005255921,"weights":[],"bias":0},{"value":0.3968809753596702,"weights":[],"bias":0},{"value":0.3728583694448333,"weights":[],"bias":0}],"Ninput":5,"Nhidden":4,"Noutput":5},"fin":false},{"fit":0,"posRace":4,"pos":{"isPInst":true,"x":166.55538636764905,"y":335.0792851229966,"z":0},"speed":{"isPInst":true,"x":-2.330097714918066,"y":-0.9058943861916813,"z":0},"speedMult":1,"rays":[{"start":{"isPInst":true,"x":157.23499550797678,"y":331.4557075782299,"z":0},"end":{"isPInst":true,"x":130.70230955021194,"y":385.2703577756123,"z":0},"dist":10.172634298533648},{"start":{"isPInst":true,"x":157.23499550797678,"y":331.4557075782299,"z":0},"end":{"isPInst":true,"x":100.42084926239711,"y":350.7469694961524,"z":0},"dist":12.62052873575831},{"start":{"isPInst":true,"x":157.23499550797678,"y":331.4557075782299,"z":0},"end":{"isPInst":true,"x":101.31265034994317,"y":309.7142423096296,"z":0},"dist":52.05204976128193},{"start":{"isPInst":true,"x":157.23499550797678,"y":331.4557075782299,"z":0},"end":{"isPInst":true,"x":128.3711382445702,"y":278.8545883517563,"z":0},"dist":25.34692665470884},{"start":{"isPInst":true,"x":157.23499550797678,"y":331.4557075782299,"z":0},"end":{"isPInst":true,"x":174.01977440886296,"y":273.851270273033,"z":0},"dist":18.83582673673224}],"crashed":true,"body":{"start":{"isPInst":true,"x":157.23499550797678,"y":331.4557075782299,"z":0},"end":{"isPInst":true,"x":175.87577722732132,"y":338.7028626677633,"z":0},"dist":null},"brain":{"input":[{"value":1.0084138502951006,"weights":[-0.4708110153253213,-0.5531163688209366,0.16472770523215585,0.5810671336470317],"bias":0},{"value":-1,"weights":[-0.016722148172653828,-0.6558901781620454,0.57359510356186,0.32691219880400757],"bias":0},{"value":0.21610778183422286,"weights":[0.8284660533504691,0.10150109662226559,0.5884936106394427,-0.17639232393698556],"bias":0},{"value":0.17870213672801177,"weights":[-0.7017647017430781,0.8682587377132434,0.9961065684207031,-0.3610708527339921],"bias":0},{"value":0.16825144244291382,"weights":[0.07048188443630332,0.16834095806947058,-0.9724256657496531,-0.16468246750867754],"bias":0}],"hidden1":[{"value":0.38758106893802813,"weights":[-0.4543019617649482,-0.8764934457938862,0.8078240205334168,0.2788725886847798],"bias":-0.06493112673670187},{"value":0.5610845432198208,"weights":[-0.6672389432147763,0.8487092162764291,0.555065704044067,-0.6556628667905318],"bias":-0.057973666610007205},{"value":0.42145913957373626,"weights":[-0.02447033985271485,-0.7878025341841437,0.8312982948539873,0.2998723833664463],"bias":-0.05087733958374714},{"value":0.5483672277241182,"weights":[0.8803820965483542,-0.005863193633313113,0.45995088137876383,-0.07873406048747711],"bias":0.06538378994025515}],"hidden2":[{"value":0.48296618956232434,"weights":[0.9267871138423889,-0.7516918042755791,-0.5451544148431058,0.2354350923122115,0.3007686761967503],"bias":0.009835236952050463},{"value":0.4466715586455089,"weights":[-0.9932403775061096,0.6687271302163929,0.0693308672164874,-0.3559260991654787,-0.8579104562470756],"bias":-0.015371790162843804},{"value":0.7794095576887353,"weights":[0.8877192444172808,0.5236433808311034,0.34056689187355804,-0.7118078829234635,-0.33706206903273506],"bias":0.03511253751498905},{"value":0.45570817653676626,"weights":[0.0689773891571237,0.553476984660707,0.8991485492880464,0.28522467439288945,-0.26506062022406507],"bias":-0.0010451163972488298}],"output":[{"value":0.67420921017704,"weights":[],"bias":0},{"value":0.6447443719676362,"weights":[],"bias":0},{"value":0.6089420652369774,"weights":[],"bias":0},{"value":0.38459600072148004,"weights":[],"bias":0},{"value":0.34945338269926507,"weights":[],"bias":0}],"Ninput":5,"Nhidden":4,"Noutput":5},"fin":false},{"fit":0,"posRace":11,"pos":{"isPInst":true,"x":82.46078252182018,"y":311.6418449672482,"z":0},"speed":{"isPInst":true,"x":-0.4966733269876537,"y":-2.450166444603103,"z":0},"speedMult":1,"rays":[{"start":{"isPInst":true,"x":80.47408921386956,"y":301.8411791888358,"z":0},"end":{"isPInst":true,"x":20.85495111133018,"y":308.59087339748976,"z":0},"dist":45.721827752933216},{"start":{"isPInst":true,"x":80.47408921386956,"y":301.8411791888358,"z":0},"end":{"isPInst":true,"x":33.54423782719189,"y":264.45683689390773,"z":0},"dist":63.5680609146163},{"start":{"isPInst":true,"x":80.47408921386956,"y":301.8411791888358,"z":0},"end":{"isPInst":true,"x":68.55392936616587,"y":243.0371845183613,"z":0},"dist":47.3402204745357},{"start":{"isPInst":true,"x":80.47408921386956,"y":301.8411791888358,"z":0},"end":{"isPInst":true,"x":109.14119617570047,"y":249.13257478273385,"z":0},"dist":49.52690452481184},{"start":{"isPInst":true,"x":80.47408921386956,"y":301.8411791888358,"z":0},"end":{"isPInst":true,"x":138.01540654601408,"y":284.84127331611273,"z":0},"dist":-60}],"crashed":false,"body":{"start":{"isPInst":true,"x":80.47408921386956,"y":301.8411791888358,"z":0},"end":{"isPInst":true,"x":84.4474758297708,"y":321.44251074566057,"z":0},"dist":null},"brain":{"input":[{"value":0.7659703117631991,"weights":[-0.4708110153253213,-0.5531163688209366,0.16472770523215585,0.5810671336470317],"bias":0},{"value":0.986262093406699,"weights":[-0.016722148172653828,-0.6558901781620454,0.57359510356186,0.32691219880400757],"bias":0},{"value":0.852792715648161,"weights":[0.8284660533504691,0.10150109662226559,0.5884936106394427,-0.17639232393698556],"bias":0},{"value":0.8420940476922151,"weights":[-0.7017647017430781,0.8682587377132434,0.9961065684207031,-0.3610708527339921],"bias":0},{"value":-1,"weights":[0.07048188443630332,0.16834095806947058,-0.9724256657496531,-0.16468246750867754],"bias":0}],"hidden1":[{"value":0.40203940402440747,"weights":[-0.4543019617649482,-0.8764934457938862,0.8078240205334168,0.2788725886847798],"bias":-0.06493112673670187},{"value":0.38245284824684117,"weights":[-0.6672389432147763,0.8487092162764291,0.555065704044067,-0.8570557358407731],"bias":-0.057973666610007205},{"value":0.9504577769446376,"weights":[-0.02447033985271485,-0.7878025341841437,0.8312982948539873,0.2998723833664463],"bias":-0.05087733958374714},{"value":0.6325299693289712,"weights":[0.8803820965483542,-0.005863193633313113,0.45995088137876383,-0.07873406048747711],"bias":0.06538378994025515}],"hidden2":[{"value":0.5263781240991909,"weights":[0.9267871138423889,-0.7516918042755791,-0.5451544148431058,0.2354350923122115,0.3007686761967503],"bias":0.009835236952050463},{"value":0.31095740983268016,"weights":[-0.9932403775061096,0.6687271302163929,0.0693308672164874,-0.3559260991654787,-0.8579104562470756],"bias":-0.015371790162843804},{"value":0.8393261361589393,"weights":[0.6539808094747479,0.5236433808311034,0.34056689187355804,-0.7118078829234635,-0.33706206903273506],"bias":0.03511253751498905},{"value":0.504625775936466,"weights":[0.0689773891571237,0.553476984660707,-0.29049994353013453,0.28522467439288945,-0.26506062022406507],"bias":-0.0010451163972488298}],"output":[{"value":0.6819387698737582,"weights":[],"bias":0},{"value":0.6297344712634001,"weights":[],"bias":0},{"value":0.46850538325530267,"weights":[],"bias":0},{"value":0.3916796822323044,"weights":[],"bias":0},{"value":0.37165649156639385,"weights":[],"bias":0}],"Ninput":5,"Nhidden":4,"Noutput":5},"fin":false},{"fit":0,"posRace":10,"pos":{"isPInst":true,"x":75.90588088933924,"y":319.2237629693145,"z":0},"speed":{"isPInst":true,"x":-2.330097714918067,"y":-0.9058943861916815,"z":0},"speedMult":1,"rays":[{"start":{"isPInst":true,"x":66.58549002966697,"y":315.6001854245478,"z":0},"end":{"isPInst":true,"x":40.052804071902145,"y":369.4148356219302,"z":0},"dist":-60},{"start":{"isPInst":true,"x":66.58549002966697,"y":315.6001854245478,"z":0},"end":{"isPInst":true,"x":9.771343784087307,"y":334.8914473424703,"z":0},"dist":39.4323728843174},{"start":{"isPInst":true,"x":66.58549002966697,"y":315.6001854245478,"z":0},"end":{"isPInst":true,"x":10.663144871633364,"y":293.8587201559475,"z":0},"dist":41.742756795402556},{"start":{"isPInst":true,"x":66.58549002966697,"y":315.6001854245478,"z":0},"end":{"isPInst":true,"x":37.721632766260385,"y":262.9990661980742,"z":0},"dist":65.67918448248858},{"start":{"isPInst":true,"x":66.58549002966697,"y":315.6001854245478,"z":0},"end":{"isPInst":true,"x":83.37026893055315,"y":257.9957481193509,"z":0},"dist":54.18615114736314}],"crashed":false,"body":{"start":{"isPInst":true,"x":66.58549002966697,"y":315.6001854245478,"z":0},"end":{"isPInst":true,"x":85.22627174901152,"y":322.8473405140812,"z":0},"dist":null},"brain":{"input":[{"value":-1,"weights":[-0.4708110153253213,-0.5531163688209366,0.16472770523215585,0.5810671336470317],"bias":0},{"value":0.6890128513180277,"weights":[-0.016722148172653828,-0.6558901781620454,0.57359510356186,0.32691219880400757],"bias":0},{"value":0.7711631892532599,"weights":[0.8284660533504691,0.10150109662226559,0.5884936106394427,-0.17639232393698556],"bias":0},{"value":1.048048879539296,"weights":[-0.7017647017430781,0.8682587377132434,0.9961065684207031,-0.3610708527339921],"bias":0},{"value":0.9322877648795697,"weights":[0.07048188443630332,0.16834095806947058,0.7005550005710743,-0.16468246750867754],"bias":0}],"hidden1":[{"value":0.5898792742467895,"weights":[-0.4543019617649482,-0.8764934457938862,0.8078240205334168,0.2788725886847798],"bias":-0.06493112673670187},{"value":0.7664583029932269,"weights":[-0.6672389432147763,0.8487092162764291,0.555065704044067,-0.6556628667905318],"bias":-0.057973666610007205},{"value":0.9113734433720775,"weights":[-0.02447033985271485,-0.7878025341841437,0.8312982948539873,0.5985344786952753],"bias":-0.05087733958374714},{"value":0.27719559903978186,"weights":[0.8803820965483542,-0.005863193633313113,0.45995088137876383,-0.07873406048747711],"bias":0.06538378994025515}],"hidden2":[{"value":0.3663697581627253,"weights":[0.9267871138423889,-0.7516918042755791,-0.5451544148431058,0.2354350923122115,0.3007686761967503],"bias":0.009835236952050463},{"value":0.3539995766357873,"weights":[-0.9932403775061096,0.6687271302163929,0.0693308672164874,-0.3559260991654787,-0.787702158301125],"bias":-0.015371790162843804},{"value":0.8608281573090184,"weights":[0.6539808094747479,0.5236433808311034,0.34056689187355804,-0.7118078829234635,-0.33706206903273506],"bias":0.03511253751498905},{"value":0.5460148015263793,"weights":[0.0689773891571237,0.553476984660707,-0.29049994353013453,0.28522467439288945,-0.26506062022406507],"bias":-0.0010451163972488298}],"output":[{"value":0.6430364807380037,"weights":[],"bias":0},{"value":0.6713518342070166,"weights":[],"bias":0},{"value":0.4898432242471432,"weights":[],"bias":0},{"value":0.37830502478502315,"weights":[],"bias":0},{"value":0.3535357641791304,"weights":[],"bias":0}],"Ninput":5,"Nhidden":4,"Noutput":5},"fin":false},{"fit":0,"posRace":3,"pos":{"isPInst":true,"x":181.75702987224082,"y":382.7992371261595,"z":0},"speed":{"isPInst":true,"x":-1.688657951377874,"y":1.8434842888531169,"z":0},"speedMult":1,"rays":[{"start":{"isPInst":true,"x":175.0023980667293,"y":390.17317428157196,"z":0},"end":{"isPInst":true,"x":215.54543094445324,"y":434.40283045337367,"z":0},"dist":22.831090402348263},{"start":{"isPInst":true,"x":175.0023980667293,"y":390.17317428157196,"z":0},"end":{"isPInst":true,"x":172.3955617358066,"y":450.11651756791014,"z":0},"dist":43.99325603315393},{"start":{"isPInst":true,"x":175.0023980667293,"y":390.17317428157196,"z":0},"end":{"isPInst":true,"x":134.47460723366035,"y":434.41679721404677,"z":0},"dist":58.585748648713626},{"start":{"isPInst":true,"x":175.0023980667293,"y":390.17317428157196,"z":0},"end":{"isPInst":true,"x":115.51705647853052,"y":398.0149939769812,"z":0},"dist":-60},{"start":{"isPInst":true,"x":175.0023980667293,"y":390.17317428157196,"z":0},"end":{"isPInst":true,"x":127.39490576504969,"y":353.6556897468246,"z":0},"dist":10.13335909916466}],"crashed":true,"body":{"start":{"isPInst":true,"x":175.0023980667293,"y":390.17317428157196,"z":0},"end":{"isPInst":true,"x":188.51166167775233,"y":375.425299970747,"z":0},"dist":null},"brain":{"input":[{"value":0.17571232291272693,"weights":[-0.4708110153253213,-0.5531163688209366,0.16472770523215585,0.5810671336470317],"bias":0},{"value":0.19374739296236557,"weights":[-0.016722148172653828,-0.6558901781620454,0.57359510356186,0.32691219880400757],"bias":0},{"value":0.2152449161120065,"weights":[0.8284660533504691,0.10150109662226559,0.5884936106394427,-0.17639232393698556],"bias":0},{"value":0.6579185471714991,"weights":[-0.7017647017430781,0.8682587377132434,0.9961065684207031,-0.3610708527339921],"bias":0},{"value":-1,"weights":[0.07048188443630332,0.16834095806947058,-0.9724256657496531,-0.16468246750867754],"bias":0}],"hidden1":[{"value":0.3764224495662042,"weights":[-0.4543019617649482,-0.8764934457938862,0.8078240205334168,0.2788725886847798],"bias":-0.06493112673670187},{"value":0.5355673560627162,"weights":[-0.6672389432147763,0.8487092162764291,0.555065704044067,-0.6556628667905318],"bias":-0.057973666610007205},{"value":0.8633801468178238,"weights":[-0.02447033985271485,-0.7878025341841437,0.8312982948539873,0.5985344786952753],"bias":-0.05087733958374714},{"value":0.529959701863438,"weights":[0.8803820965483542,-0.005863193633313113,0.45995088137876383,-0.07873406048747711],"bias":0.06538378994025515}],"hidden2":[{"value":0.48173668148063115,"weights":[0.9267871138423889,-0.03419033221839962,-0.5451544148431058,0.2354350923122115,0.3007686761967503],"bias":0.009835236952050463},{"value":0.36030445427371083,"weights":[-0.9932403775061096,0.6687271302163929,0.0693308672164874,-0.3559260991654787,-0.8579104562470756],"bias":-0.015371790162843804},{"value":0.8317320356095552,"weights":[0.6539808094747479,0.5236433808311034,0.34056689187355804,-0.7118078829234635,-0.33706206903273506],"bias":0.03511253751498905},{"value":0.5567084676612387,"weights":[0.0689773891571237,0.553476984660707,0.8991485492880464,0.28522467439288945,-0.26506062022406507],"bias":-0.0010451163972488298}],"output":[{"value":0.6617126023195523,"weights":[],"bias":0},{"value":0.7247467949072344,"weights":[],"bias":0},{"value":0.6332496458341794,"weights":[],"bias":0},{"value":0.3898196276611795,"weights":[],"bias":0},{"value":0.356147551457207,"weights":[],"bias":0}],"Ninput":5,"Nhidden":4,"Noutput":5},"fin":false},{"fit":0,"posRace":0,"pos":{"isPInst":true,"x":248.96533835604504,"y":373.9218314468866,"z":0},"speed":{"isPInst":true,"x":2.46362432497115,"y":-0.4249178572506011,"z":0},"speedMult":1,"rays":[{"start":{"isPInst":true,"x":258.81983565592964,"y":372.22216001788416,"z":0},"end":{"isPInst":true,"x":253.81386984896574,"y":312.4313554879273,"z":0},"dist":14.617955266899003},{"start":{"isPInst":true,"x":258.81983565592964,"y":372.22216001788416,"z":0},"end":{"isPInst":true,"x":297.5585666231693,"y":326.4039243136602,"z":0},"dist":31.936960735116152},{"start":{"isPInst":true,"x":258.81983565592964,"y":372.22216001788416,"z":0},"end":{"isPInst":true,"x":317.94681945523723,"y":362.02413144386975,"z":0},"dist":25.2432820507971},{"start":{"isPInst":true,"x":258.81983565592964,"y":372.22216001788416,"z":0},"end":{"isPInst":true,"x":310.6688994443808,"y":402.4161094823235,"z":0},"dist":25.66714344146186},{"start":{"isPInst":true,"x":258.81983565592964,"y":372.22216001788416,"z":0},"end":{"isPInst":true,"x":274.13231384180835,"y":430.23533103798087,"z":0},"dist":57.31020912496727}],"crashed":true,"body":{"start":{"isPInst":true,"x":258.81983565592964,"y":372.22216001788416,"z":0},"end":{"isPInst":true,"x":239.11084105616044,"y":375.621502875889,"z":0},"dist":null},"brain":{"input":[{"value":0.6760168807961975,"weights":[-0.4708110153253213,-0.5531163688209366,0.16472770523215585,0.5810671336470317],"bias":0},{"value":0.21162617561187722,"weights":[-0.016722148172653828,-0.6558901781620454,0.57359510356186,0.32691219880400757],"bias":0},{"value":0.19888586115754694,"weights":[0.8284660533504691,0.10150109662226559,0.5884936106394427,-0.17639232393698556],"bias":0},{"value":0.19404141947678968,"weights":[-0.7017647017430781,0.8682587377132434,0.9961065684207031,-0.3610708527339921],"bias":0},{"value":0.19544401278113668,"weights":[0.07048188443630332,0.16834095806947058,-0.9724256657496531,-0.16468246750867754],"bias":0}],"hidden1":[{"value":0.41474782516546393,"weights":[-0.4543019617649482,-0.8764934457938862,0.8078240205334168,0.2788725886847798],"bias":-0.06493112673670187},{"value":0.4135942159597442,"weights":[-0.6672389432147763,0.8487092162764291,0.555065704044067,-0.6556628667905318],"bias":-0.057973666610007205},{"value":0.5749663865832597,"weights":[-0.02447033985271485,-0.7878025341841437,0.8312982948539873,0.5985344786952753],"bias":-0.05087733958374714},{"value":0.5962940899039244,"weights":[0.8803820965483542,-0.005863193633313113,0.45995088137876383,-0.07873406048747711],"bias":0.06538378994025515}],"hidden2":[{"value":0.5140826086394187,"weights":[0.9267871138423889,-0.7516918042755791,-0.5451544148431058,0.2354350923122115,0.3007686761967503],"bias":0.009835236952050463},{"value":0.381230067757433,"weights":[-0.9932403775061096,0.6687271302163929,0.0693308672164874,-0.3559260991654787,-0.787702158301125],"bias":-0.015371790162843804},{"value":0.7944502594504088,"weights":[0.6539808094747479,-0.26573491862359244,0.34056689187355804,-0.7118078829234635,-0.33706206903273506],"bias":0.03511253751498905},{"value":0.5350988926915252,"weights":[0.0689773891571237,0.553476984660707,-0.29049994353013453,0.28522467439288945,-0.26506062022406507],"bias":-0.0010451163972488298}],"output":[{"value":0.6579691232168544,"weights":[],"bias":0},{"value":0.4883918242993516,"weights":[],"bias":0},{"value":0.46537895578213073,"weights":[],"bias":0},{"value":0.39471649123353214,"weights":[],"bias":0},{"value":0.3646383105589861,"weights":[],"bias":0}],"Ninput":5,"Nhidden":4,"Noutput":5},"fin":false},{"fit":0,"posRace":10,